{"learner":{"attributes":{},"feature_names":[],"feature_types":[],"gradient_booster":{"model":{"gbtree_model_param":{"num_parallel_tree":"1","num_trees":"300"},"iteration_indptr":[0,1,2,3,4,5,6,7,8,9,10,11,12,13,14,15,16,17,18,19,20,21,22,23,24,25,26,27,28,29,30,31,32,33,34,35,36,37,38,39,40,41,42,43,44,45,46,47,48,49,50,51,52,53,54,55,56,57,58,59,60,61,62,63,64,65,66,67,68,69,70,71,72,73,74,75,76,77,78,79,80,81,82,83,84,85,86,87,88,89,90,91,92,93,94,95,96,97,98,99,100,101,102,103,104,105,106,107,108,109,110,111,112,113,114,115,116,117,118,119,120,121,122,123,124,125,126,127,128,129,130,131,132,133,134,135,136,137,138,139,140,141,142,143,144,145,146,147,148,149,150,151,152,153,154,155,156,157,158,159,160,161,162,163,164,165,166,167,168,169,170,171,172,173,174,175,176,177,178,179,180,181,182,183,184,185,186,187,188,189,190,191,192,193,194,195,196,197,198,199,200,201,202,203,204,205,206,207,208,209,210,211,212,213,214,215,216,217,218,219,220,221,222,223,224,225,226,227,228,229,230,231,232,233,234,235,236,237,238,239,240,241,242,243,244,245,246,247,248,249,250,251,252,253,254,255,256,257,258,259,260,261,262,263,264,265,266,267,268,269,270,271,272,273,274,275,276,277,278,279,280,281,282,283,284,285,286,287,288,289,290,291,292,293,294,295,296,297,298,299,300],"tree_info":[0,0,0,0,0,0,0,0,0,0,0,0,0,0,0,0,0,0,0,0,0,0,0,0,0,0,0,0,0,0,0,0,0,0,0,0,0,0,0,0,0,0,0,0,0,0,0,0,0,0,0,0,0,0,0,0,0,0,0,0,0,0,0,0,0,0,0,0,0,0,0,0,0,0,0,0,0,0,0,0,0,0,0,0,0,0,0,0,0,0,0,0,0,0,0,0,0,0,0,0,0,0,0,0,0,0,0,0,0,0,0,0,0,0,0,0,0,0,0,0,0,0,0,0,0,0,0,0,0,0,0,0,0,0,0,0,0,0,0,0,0,0,0,0,0,0,0,0,0,0,0,0,0,0,0,0,0,0,0,0,0,0,0,0,0,0,0,0,0,0,0,0,0,0,0,0,0,0,0,0,0,0,0,0,0,0,0,0,0,0,0,0,0,0,0,0,0,0,0,0,0,0,0,0,0,0,0,0,0,0,0,0,0,0,0,0,0,0,0,0,0,0,0,0,0,0,0,0,0,0,0,0,0,0,0,0,0,0,0,0,0,0,0,0,0,0,0,0,0,0,0,0,0,0,0,0,0,0,0,0,0,0,0,0,0,0,0,0,0,0,0,0,0,0,0,0,0,0,0,0,0,0,0,0,0,0,0,0,0,0,0,0,0,0,0,0,0,0,0,0],"trees":[{"base_weights":[-6.989015E-4,-1E0,7.871503E-1,-1E0,-3.3408043E-1,1E0,-7.9240966E-1,-1E0,4.4156775E-1,-1E0,4.9027687E-1,-1.16185956E-1,1E0,9.382116E-1,-1E0,-1.0303127E-1,9.479019E-2,-1.0303127E-1,1.0303127E-1,-1.0303127E-1,7.599032E-2,-1.0303127E-1,9.932042E-2,-1.0303127E-1,7.480458E-2,-1.0303127E-1,1.0303127E-1,-1.0303127E-1,1.0303127E-1,-1.0303127E-1,8.606701E-2],"categories":[],"categories_nodes":[],"categories_segments":[],"categories_sizes":[],"default_left":[0,0,0,0,0,0,0,0,0,0,0,0,0,0,0,0,0,0,0,0,0,0,0,0,0,0,0,0,0,0,0],"id":0,"left_children":[1,3,5,7,9,11,13,15,17,19,21,23,25,27,29,-1,-1,-1,-1,-1,-1,-1,-1,-1,-1,-1,-1,-1,-1,-1,-1],"loss_changes":[1.6827811E3,8.009119E1,4.7411713E2,2.2287231E1,1.4161191E2,2.595974E2,2.272114E2,1.6542847E1,2.94925E1,5.7736633E1,1.01802376E2,1.947284E2,1.1300476E2,1.09886444E2,1.556723E1,0E0,0E0,0E0,0E0,0E0,0E0,0E0,0E0,0E0,0E0,0E0,0E0,0E0,0E0,0E0,0E0],"parents":[2147483647,0,0,1,1,2,2,3,3,4,4,5,5,6,6,7,7,8,8,9,9,10,10,11,11,12,12,13,13,14,14],"right_children":[2,4,6,8,10,12,14,16,18,20,22,24,26,28,30,-1,-1,-1,-1,-1,-1,-1,-1,-1,-1,-1,-1,-1,-1,-1,-1],"split_conditions":[1.9885121E-1,1.025913E-1,5.3270016E1,1.2521225E0,1.0295771E-1,1.5495408E0,1.0364048E-2,9.1E1,9.1069646E-2,2.429337E-1,9.817459E0,-1.757884E0,-8.9212045E-2,9.950497E0,7.661907E-1,-1.0303127E-1,9.479019E-2,-1.0303127E-1,1.0303127E-1,-1.0303127E-1,7.599032E-2,-1.0303127E-1,9.932042E-2,-1.0303127E-1,7.480458E-2,-1.0303127E-1,1.0303127E-1,-1.0303127E-1,1.0303127E-1,-1.0303127E-1,8.606701E-2],"split_indices":[101,101,86,123,81,91,58,69,81,120,30,86,106,30,60,0,0,0,0,0,0,0,0,0,0,0,0,0,0,0,0],"split_type":[0,0,0,0,0,0,0,0,0,0,0,0,0,0,0,0,0,0,0,0,0,0,0,0,0,0,0,0,0,0,0],"sum_hessian":[1.7079669E3,6.4709515E2,1.0608718E3,4.664604E2,1.8063478E2,8.9834906E2,1.6252272E2,4.5574677E2,1.0713599E1,8.081725E1,9.981752E1,2.0835603E2,6.8999304E2,6.233482E1,1.001879E2,4.5127063E2,4.4761586E0,4.104997E0,6.608602E0,6.170455E1,1.9112701E1,1.5954344E1,8.386318E1,8.8375725E1,1.1998031E2,1.4126704E1,6.7586633E2,1.3766596E1,4.8568222E1,9.557781E1,4.610085E0],"tree_param":{"num_deleted":"0","num_feature":"136","num_nodes":"31","size_leaf_vector":"1"}},{"base_weights":[-2.4140982E-2,-1E0,9.17946E-1,-1E0,7.650908E-1,1E0,-1E0,-1E0,-2.414635E-1,1E0,-1E0,-1.0303127E-1,1E0,-1E0,1E0,-1.0303127E-1,1.0303127E-1,1.0303127E-1,-1.0303127E-1,1.0303127E-1,-1.0303127E-1,1.0303127E-1,-1.0303127E-1,-1.0303127E-1,1.0303127E-1,-1.0303127E-1,1.0303127E-1,1.0303127E-1,-1.0303127E-1],"categories":[],"categories_nodes":[],"categories_segments":[],"categories_sizes":[],"default_left":[0,0,0,0,0,0,0,0,0,0,0,0,0,0,0,0,0,0,0,0,0,0,0,0,0,0,0,0,0],"id":1,"left_children":[1,3,5,7,9,11,13,15,17,19,21,-1,23,25,27,-1,-1,-1,-1,-1,-1,-1,-1,-1,-1,-1,-1,-1,-1],"loss_changes":[1.9432217E3,3.308457E2,5.5243964E2,3.4721924E1,9.467308E1,2.8625256E2,9.8549286E1,2.4810791E1,1.1236288E2,3.6329323E1,2.1666864E1,0E0,1.3911743E2,2.3393997E1,2.5531746E1,0E0,0E0,0E0,0E0,0E0,0E0,0E0,0E0,0E0,0E0,0E0,0E0,0E0,0E0],"parents":[2147483647,0,0,1,1,2,2,3,3,4,4,5,5,6,6,7,7,8,8,9,9,10,10,12,12,13,13,14,14],"right_children":[2,4,6,8,10,12,14,16,18,20,22,-1,24,26,28,-1,-1,-1,-1,-1,-1,-1,-1,-1,-1,-1,-1,-1,-1],"split_conditions":[8.167047E-3,9.0724605E-1,6.2625945E-2,6.9984836E-3,1.0709067E1,9.560498E2,7.7426906E0,2.983446E-1,3.3815725E0,1.2032358E1,9.2665E-1,-1.0303127E-1,-9.695566E-2,3.75946E0,-4.8490635E1,-1.0303127E-1,1.0303127E-1,1.0303127E-1,-1.0303127E-1,1.0303127E-1,-1.0303127E-1,1.0303127E-1,-1.0303127E-1,-1.0303127E-1,1.0303127E-1,-1.0303127E-1,1.0303127E-1,1.0303127E-1,-1.0303127E-1],"split_indices":[107,101,57,107,83,71,91,82,83,17,101,0,106,28,83,0,0,0,0,0,0,0,0,0,0,0,0,0,0],"split_type":[0,0,0,0,0,0,0,0,0,0,0,0,0,0,0,0,0,0,0,0,0,0,0,0,0,0,0,0,0],"sum_hessian":[1.7091141E3,7.384049E2,9.707092E2,6.322243E2,1.06180595E2,8.6086554E2,1.0984367E2,5.7185925E2,6.0365063E1,8.691825E1,1.9262342E1,3.740986E1,8.234557E2,9.0237854E1,1.9605816E1,5.685971E2,3.2621543E0,3.356431E1,2.6800755E1,8.2490364E1,4.427889E0,3.6630373E0,1.5599305E1,1.8113792E1,8.053419E2,8.677402E1,3.463841E0,1.6310772E1,3.2950444E0],"tree_param":{"num_deleted":"0","num_feature":"136","num_nodes":"29","size_leaf_vector":"1"}},{"base_weights":[-4.3257296E-2,-1E0,8.458736E-1,-1E0,7.44066E-1,1E0,-1E0,-1E0,-2.7306688E-1,-1E0,1E0,-1.0303127E-1,1E0,-1E0,1E0,-1.0303127E-1,1.0303127E-1,-1.0303127E-1,1.0303127E-1,1.0303127E-1,-1.0303127E-1,1.0303127E-1,-1.0303127E-1,-1.0303127E-1,1.0303127E-1,-1.0303127E-1,1.0303127E-1,-1.0303127E-1,1.0303127E-1],"categories":[],"categories_nodes":[],"categories_segments":[],"categories_sizes":[],"default_left":[0,0,0,0,0,0,0,0,0,0,0,0,0,0,0,0,0,0,0,0,0,0,0,0,0,0,0,0,0],"id":2,"left_children":[1,3,5,7,9,11,13,15,17,19,21,-1,23,25,27,-1,-1,-1,-1,-1,-1,-1,-1,-1,-1,-1,-1,-1,-1],"loss_changes":[1.727314E3,3.0445764E2,4.735326E2,2.3572998E1,7.474616E1,2.7515234E2,1.3338094E2,2.3471313E1,7.635446E1,2.0352333E1,4.6747E1,0E0,1.314143E2,2.3097244E1,3.3648304E1,0E0,0E0,0E0,0E0,0E0,0E0,0E0,0E0,0E0,0E0,0E0,0E0,0E0,0E0],"parents":[2147483647,0,0,1,1,2,2,3,3,4,4,5,5,6,6,7,7,8,8,9,9,10,10,12,12,13,13,14,14],"right_children":[2,4,6,8,10,12,14,16,18,20,22,-1,24,26,28,-1,-1,-1,-1,-1,-1,-1,-1,-1,-1,-1,-1,-1,-1],"split_conditions":[8.167047E-3,9.7040004E-1,6.2625945E-2,7.350054E-3,3.4093362E-1,9.560498E2,1.4746267E-1,3.077635E-1,5.952406E-1,-1.2807909E0,1.05832205E1,-1.0303127E-1,-9.695566E-2,9.1E1,1.0233189E0,-1.0303127E-1,1.0303127E-1,-1.0303127E-1,1.0303127E-1,1.0303127E-1,-1.0303127E-1,1.0303127E-1,-1.0303127E-1,-1.0303127E-1,1.0303127E-1,-1.0303127E-1,1.0303127E-1,-1.0303127E-1,1.0303127E-1],"split_indices":[107,31,57,107,133,71,105,82,60,9,110,0,106,69,31,0,0,0,0,0,0,0,0,0,0,0,0,0,0],"split_type":[0,0,0,0,0,0,0,0,0,0,0,0,0,0,0,0,0,0,0,0,0,0,0,0,0,0,0,0,0],"sum_hessian":[1.6801102E3,7.21808E2,9.5830225E2,6.217269E2,1.0008107E2,8.4048083E2,1.1782144E2,5.770967E2,4.4630283E1,1.7081856E1,8.2999214E1,3.773043E1,8.027504E2,9.055445E1,2.7266987E1,5.738603E2,3.2363427E0,2.6047379E1,1.8582905E1,3.61955E0,1.3462307E1,7.716235E1,5.83686E0,1.7943413E1,7.84807E2,8.724917E1,3.305285E0,4.5781107E0,2.2688875E1],"tree_param":{"num_deleted":"0","num_feature":"136","num_nodes":"29","size_leaf_vector":"1"}},{"base_weights":[-2.7704624E-2,-1E0,9.143036E-1,-1E0,8.706349E-1,1E0,-1E0,-1E0,9.81325E-1,-1E0,1E0,-1.0303127E-1,1E0,-1E0,1E0,-1.0303127E-1,-5.014167E-2,-1.1831556E-3,1.0303127E-1,-1.0303127E-1,1.0303127E-1,1.0303127E-1,-1.0303127E-1,1.0303127E-1,-1.0303127E-1,-1.0303127E-1,1.0303127E-1,1.1642839E-2,1.0303127E-1],"categories":[],"categories_nodes":[],"categories_segments":[],"categories_sizes":[],"default_left":[0,0,0,0,0,0,0,0,0,0,0,0,0,0,0,0,0,0,0,0,0,0,0,0,0,0,0,0,0],"id":3,"left_children":[1,3,5,7,9,11,13,15,17,19,21,-1,23,25,27,-1,-1,-1,-1,-1,-1,-1,-1,-1,-1,-1,-1,-1,-1],"loss_changes":[1.5733756E3,4.1216382E2,3.8369055E2,4.9639526E1,7.398328E1,1.4355011E2,6.9152985E1,3.40542E1,6.2506886E0,2.4310265E1,3.5738556E1,0E0,9.383081E1,2.0781113E1,4.647299E0,0E0,0E0,0E0,0E0,0E0,0E0,0E0,0E0,0E0,0E0,0E0,0E0,0E0,0E0],"parents":[2147483647,0,0,1,1,2,2,3,3,4,4,5,5,6,6,7,7,8,8,9,9,10,10,12,12,13,13,14,14],"right_children":[2,4,6,8,10,12,14,16,18,20,22,-1,24,26,28,-1,-1,-1,-1,-1,-1,-1,-1,-1,-1,-1,-1,-1,-1],"split_conditions":[1.0405836E-2,1.0472149E0,2.3276685E-1,2.6589437E0,3.4093362E-1,9.560498E2,2.1335628E0,6.9984836E-3,9.19301E0,8.977511E-1,1.4895268E1,-1.0303127E-1,1.011445E3,3.75946E0,1.7231491E-1,-1.0303127E-1,-5.014167E-2,-1.1831556E-3,1.0303127E-1,-1.0303127E-1,1.0303127E-1,1.0303127E-1,-1.0303127E-1,1.0303127E-1,-1.0303127E-1,-1.0303127E-1,1.0303127E-1,1.1642839E-2,1.0303127E-1],"split_indices":[107,101,54,130,133,71,11,107,24,56,83,0,73,28,82,0,0,0,0,0,0,0,0,0,0,0,0,0,0],"split_type":[0,0,0,0,0,0,0,0,0,0,0,0,0,0,0,0,0,0,0,0,0,0,0,0,0,0,0,0,0],"sum_hessian":[1.676902E3,8.1496814E2,8.6193384E2,6.97194E2,1.1777415E2,7.7055096E2,9.1382904E1,6.8456036E2,1.2633622E1,1.6723797E1,1.01050354E2,2.0597599E1,7.499533E2,7.5881386E1,1.5501518E1,5.5528595E2,1.2927441E2,6.1043096E0,6.5293126E0,1.3394967E1,3.32883E0,9.634233E1,4.7080197E0,7.385636E2,1.1389746E1,7.248451E1,3.3968701E0,5.919746E0,9.581773E0],"tree_param":{"num_deleted":"0","num_feature":"136","num_nodes":"29","size_leaf_vector":"1"}},{"base_weights":[-4.7042873E-2,-1E0,5.3694075E-1,-1E0,9.753972E-2,-4.9055082E-1,8.975699E-1,2.4015796E-1,-1E0,-1.0303127E-1,9.0507895E-1,-8.528992E-1,1E0,-1E0,1E0,-1.0303127E-1,1.0303127E-1,-1.0303127E-1,6.284966E-3,-1.0303127E-1,1.0303127E-1,1.3569685E-2,-1.0303127E-1,1.0303127E-1,-1.0303127E-1,-1.0303127E-1,9.540466E-2,-1.0303127E-1,1.0303127E-1],"categories":[],"categories_nodes":[],"categories_segments":[],"categories_sizes":[],"default_left":[0,0,0,0,0,0,0,0,0,0,0,0,0,0,0,0,0,0,0,0,0,0,0,0,0,0,0,0,0],"id":4,"left_children":[1,3,5,7,9,11,13,15,17,-1,19,21,23,25,27,-1,-1,-1,-1,-1,-1,-1,-1,-1,-1,-1,-1,-1,-1],"loss_changes":[1.087861E3,4.2338623E1,4.0530457E2,3.3798523E1,4.6182247E1,1.5824585E2,3.261198E2,3.7708115E1,2.0980408E1,0E0,2.7661242E1,7.371939E1,3.8263844E1,4.530081E1,1.7328613E2,0E0,0E0,0E0,0E0,0E0,0E0,0E0,0E0,0E0,0E0,0E0,0E0,0E0,0E0],"parents":[2147483647,0,0,1,1,2,2,3,3,4,4,5,5,6,6,7,7,8,8,10,10,11,11,12,12,13,13,14,14],"right_children":[2,4,6,8,10,12,14,16,18,-1,20,22,24,26,28,-1,-1,-1,-1,-1,-1,-1,-1,-1,-1,-1,-1,-1,-1],"split_conditions":[1.5019512E-1,9.769657E-1,5.787749E-1,1E0,2.61103E-1,1.1004906E0,-5.17671E-2,9.99249E-4,6.2559485E-1,-1.0303127E-1,5.519294E-1,4.416464E-2,7.048788E-4,1.5127212E0,9.563566E2,-1.0303127E-1,1.0303127E-1,-1.0303127E-1,6.284966E-3,-1.0303127E-1,1.0303127E-1,1.3569685E-2,-1.0303127E-1,1.0303127E-1,-1.0303127E-1,-1.0303127E-1,9.540466E-2,-1.0303127E-1,1.0303127E-1],"split_indices":[101,123,77,53,90,129,105,100,55,0,60,51,105,63,103,0,0,0,0,0,0,0,0,0,0,0,0,0,0],"split_type":[0,0,0,0,0,0,0,0,0,0,0,0,0,0,0,0,0,0,0,0,0,0,0,0,0,0,0,0,0],"sum_hessian":[1.6471749E3,5.534095E2,1.0937654E3,5.1827185E2,3.5137634E1,2.8415244E2,8.09613E2,2.1965183E1,4.9630667E2,1.0756073E1,2.4381561E1,2.2997372E2,5.4178715E1,6.4960266E1,7.446527E2,6.549828E0,1.5415354E1,4.7767908E2,1.8627605E1,3.9802399E0,2.0401321E1,6.143369E1,1.6854004E2,4.918465E1,4.9940615E0,5.275912E1,1.2201145E1,2.562111E1,7.190316E2],"tree_param":{"num_deleted":"0","num_feature":"136","num_nodes":"29","size_leaf_vector":"1"}},{"base_weights":[-5.0089717E-2,4.915119E-1,-1E0,-4.6787992E-1,1E0,-1E0,2.2813047E-1,-1E0,2.8067508E-1,1E0,-1E0,1.475489E-1,-1E0,-1E0,1E0,-1.0303127E-1,9.379248E-2,6.056836E-2,-1.0303127E-1,-1.0303127E-1,1.0303127E-1,1.0303127E-1,-1.0303127E-1,-1.0303127E-1,8.7259375E-2,-1.0303127E-1,-2.5787714E-3,1.0303127E-1,-1.0303127E-1,-1.0303127E-1,1.0303127E-1],"categories":[],"categories_nodes":[],"categories_segments":[],"categories_sizes":[],"default_left":[0,0,0,0,0,0,0,0,0,0,0,0,0,0,0,0,0,0,0,0,0,0,0,0,0,0,0,0,0,0,0],"id":5,"left_children":[1,3,5,7,9,11,13,15,17,19,21,23,25,27,29,-1,-1,-1,-1,-1,-1,-1,-1,-1,-1,-1,-1,-1,-1,-1,-1],"loss_changes":[9.905663E2,5.5094653E2,1.2589343E2,2.2682806E2,1.08897156E2,3.732007E1,1.1568275E2,3.3053436E1,1.1327672E2,7.392999E1,4.1717415E1,3.2114075E1,6.336426E0,1.7125248E1,3.133162E1,0E0,0E0,0E0,0E0,0E0,0E0,0E0,0E0,0E0,0E0,0E0,0E0,0E0,0E0,0E0,0E0],"parents":[2147483647,0,0,1,1,2,2,3,3,4,4,5,5,6,6,7,7,8,8,9,9,10,10,11,11,12,12,13,13,14,14],"right_children":[2,4,6,8,10,12,14,16,18,20,22,24,26,28,30,-1,-1,-1,-1,-1,-1,-1,-1,-1,-1,-1,-1,-1,-1,-1,-1],"split_conditions":[2.8940332E1,4.3213195E-1,1.0039622E1,-1.9508085E0,1.0106427E3,1E0,5.455784E-1,9.083721E0,1.0149139E0,4.3804213E-2,-1.7412018E0,9.563573E2,9.3E1,4.6113113E1,6.918148E0,-1.0303127E-1,9.379248E-2,6.056836E-2,-1.0303127E-1,-1.0303127E-1,1.0303127E-1,1.0303127E-1,-1.0303127E-1,-1.0303127E-1,8.7259375E-2,-1.0303127E-1,-2.5787714E-3,1.0303127E-1,-1.0303127E-1,-1.0303127E-1,1.0303127E-1],"split_indices":[85,90,36,86,73,52,56,22,70,56,89,71,52,86,13,0,0,0,0,0,0,0,0,0,0,0,0,0,0,0,0],"split_type":[0,0,0,0,0,0,0,0,0,0,0,0,0,0,0,0,0,0,0,0,0,0,0,0,0,0,0,0,0,0,0],"sum_hessian":[1.6280299E3,1.1056152E3,5.2241473E2,3.8836E2,7.172552E2,4.3895847E2,8.345626E1,1.8302678E2,2.0533322E2,6.909244E2,2.6330824E1,2.8329784E1,4.106287E2,3.0242428E1,5.3213837E1,1.7398079E2,9.045993E0,1.7849748E2,2.6835724E1,1.0022573E1,6.809018E2,6.2569857E0,2.0073837E1,7.983248E0,2.0346537E1,4.0395264E2,6.6760473E0,3.394715E0,2.6847712E1,4.0572147E0,4.915662E1],"tree_param":{"num_deleted":"0","num_feature":"136","num_nodes":"31","size_leaf_vector":"1"}},{"base_weights":[-5.7698276E-2,-1E0,6.288032E-1,-1E0,6.814809E-1,-1.0303127E-1,8.217144E-1,-1E0,1.0303127E-1,-1E0,1E0,9.935032E-1,-7.256542E-1,-1.0303127E-1,1.0303127E-1,-1.0303127E-1,1.0303127E-1,-1.0303127E-1,1.0303127E-1,1.0303127E-1,-1.0303127E-1,9.198156E-2,-1.0303127E-1],"categories":[],"categories_nodes":[],"categories_segments":[],"categories_sizes":[],"default_left":[0,0,0,0,0,0,0,0,0,0,0,0,0,0,0,0,0,0,0,0,0,0,0],"id":6,"left_children":[1,3,5,7,9,-1,11,13,-1,15,17,19,21,-1,-1,-1,-1,-1,-1,-1,-1,-1,-1],"loss_changes":[1.1985232E3,2.2707465E2,3.9089737E2,3.8922424E1,6.509287E1,0E0,2.4032617E2,2.0465576E1,0E0,1.879311E1,2.9771263E1,1.0308252E2,8.769714E1,0E0,0E0,0E0,0E0,0E0,0E0,0E0,0E0,0E0,0E0],"parents":[2147483647,0,0,1,1,2,2,3,3,4,4,6,6,7,7,9,9,10,10,11,11,12,12],"right_children":[2,4,6,8,10,-1,12,14,-1,16,18,20,22,-1,-1,-1,-1,-1,-1,-1,-1,-1,-1],"split_conditions":[6.9984836E-3,1.0652232E0,9.563566E2,3.6113534E0,1.6E0,-1.0303127E-1,2.3276685E-1,2.875932E-1,1.0303127E-1,1.0194228E0,3.4202393E-2,1.011445E3,-7.800613E1,-1.0303127E-1,1.0303127E-1,-1.0303127E-1,1.0303127E-1,-1.0303127E-1,1.0303127E-1,1.0303127E-1,-1.0303127E-1,9.198156E-2,-1.0303127E-1],"split_indices":[107,101,103,129,94,0,54,80,0,99,98,73,85,0,0,0,0,0,0,0,0,0,0],"split_type":[0,0,0,0,0,0,0,0,0,0,0,0,0,0,0,0,0,0,0,0,0,0,0],"sum_hessian":[1.5887898E3,6.052878E2,9.835021E2,5.2498627E2,8.030153E1,7.9479225E1,9.040228E2,5.1806586E2,6.9204016E0,1.5501473E1,6.480006E1,8.136929E2,9.032997E1,5.1486914E2,3.1967258E0,1.2403067E1,3.0984063E0,3.654394E0,6.114566E1,7.997998E2,1.3893055E1,2.6365105E1,6.396487E1],"tree_param":{"num_deleted":"0","num_feature":"136","num_nodes":"23","size_leaf_vector":"1"}},{"base_weights":[-5.4222006E-2,4.4570896E-1,-1E0,-5.234175E-1,9.1253453E-1,-1E0,8.137452E-2,-1E0,8.9687355E-2,-1E0,9.757786E-1,2.0470724E-1,-1.0303127E-1,-1.0303127E-1,8.6611414E-1,-1.0303127E-1,9.924557E-3,-8.161866E-2,7.383E-2,6.473414E-2,-1.0303127E-1,-1.0303127E-1,1.0303127E-1,-1.0303127E-1,9.6179724E-2,-1.0303127E-1,1.0303127E-1],"categories":[],"categories_nodes":[],"categories_segments":[],"categories_sizes":[],"default_left":[0,0,0,0,0,0,0,0,0,0,0,0,0,0,0,0,0,0,0,0,0,0,0,0,0,0,0],"id":7,"left_children":[1,3,5,7,9,11,13,15,17,19,21,23,-1,-1,25,-1,-1,-1,-1,-1,-1,-1,-1,-1,-1,-1,-1],"loss_changes":[8.490741E2,4.8634723E2,1.0500342E2,1.3790771E2,1.0460901E2,2.9565308E1,1.118631E2,2.204358E1,1.01177086E2,1.0006062E1,9.159912E1,2.528793E1,0E0,0E0,6.0123493E1,0E0,0E0,0E0,0E0,0E0,0E0,0E0,0E0,0E0,0E0,0E0,0E0],"parents":[2147483647,0,0,1,1,2,2,3,3,4,4,5,5,6,6,7,7,8,8,9,9,10,10,11,11,14,14],"right_children":[2,4,6,8,10,12,14,16,18,20,22,24,-1,-1,26,-1,-1,-1,-1,-1,-1,-1,-1,-1,-1,-1,-1],"split_conditions":[4.6113113E1,1.5495408E0,9.968714E0,6.3886887E-1,1.6456891E0,1E0,9.992019E-3,9.903443E-1,-1.9508085E0,2.2E1,-9.991573E-2,6.66525E-3,-1.0303127E-1,-1.0303127E-1,7.058885E-1,-1.0303127E-1,9.924557E-3,-8.161866E-2,7.383E-2,6.473414E-2,-1.0303127E-1,-1.0303127E-1,1.0303127E-1,-1.0303127E-1,9.6179724E-2,-1.0303127E-1,1.0303127E-1],"split_indices":[86,91,97,25,16,53,105,123,86,53,105,100,0,0,15,0,0,0,0,0,0,0,0,0,0,0,0],"split_type":[0,0,0,0,0,0,0,0,0,0,0,0,0,0,0,0,0,0,0,0,0,0,0,0,0,0,0],"sum_hessian":[1.5625623E3,1.0749645E3,4.8759772E2,3.4946558E2,7.2549896E2,3.9781277E2,8.9784935E1,1.6649051E2,1.8297507E2,1.8903671E1,7.065953E2,2.0360804E1,3.7745197E2,2.7518356E1,6.2266575E1,1.4816034E2,1.833016E1,7.6022644E1,1.06952415E2,3.7627025E0,1.5140969E1,1.33622465E1,6.9323303E2,5.6969385E0,1.4663866E1,9.20178E0,5.3064796E1],"tree_param":{"num_deleted":"0","num_feature":"136","num_nodes":"27","size_leaf_vector":"1"}},{"base_weights":[-7.691115E-2,3.8722858E-1,-1E0,-4.4028473E-1,8.098687E-1,-1E0,1.0905111E-1,-1E0,1.8101576E-1,-1E0,8.8918257E-1,3.525198E-1,-1E0,-1E0,9.814114E-1,-1.0046847E-2,-1.0303127E-1,-6.6409975E-2,7.584463E-2,-1.0303127E-1,1.0303127E-1,9.636268E-2,-1.0303127E-1,-1.0303127E-1,1.0191387E-1,-1.0303127E-1,-4.6828613E-2,1.0303127E-1,-1.0303127E-1,-1.0303127E-1,1.0303127E-1],"categories":[],"categories_nodes":[],"categories_segments":[],"categories_sizes":[],"default_left":[0,0,0,0,0,0,0,0,0,0,0,0,0,0,0,0,0,0,0,0,0,0,0,0,0,0,0,0,0,0,0],"id":8,"left_children":[1,3,5,7,9,11,13,15,17,19,21,23,25,27,29,-1,-1,-1,-1,-1,-1,-1,-1,-1,-1,-1,-1,-1,-1,-1,-1],"loss_changes":[7.1941895E2,3.6719992E2,9.0805725E1,1.26141914E2,1.0196051E2,4.2712097E1,8.7216E1,5.1286423E1,7.799566E1,3.2956818E1,8.1686584E1,2.6169746E1,2.6132812E0,1.3701588E1,2.8977379E1,0E0,0E0,0E0,0E0,0E0,0E0,0E0,0E0,0E0,0E0,0E0,0E0,0E0,0E0,0E0,0E0],"parents":[2147483647,0,0,1,1,2,2,3,3,4,4,5,5,6,6,7,7,8,8,9,9,10,10,11,11,12,12,13,13,14,14],"right_children":[2,4,6,8,10,12,14,16,18,20,22,24,26,28,30,-1,-1,-1,-1,-1,-1,-1,-1,-1,-1,-1,-1,-1,-1,-1,-1],"split_conditions":[2.8940332E1,1.5495408E0,1.000684E1,7.349247E-1,-7.1139276E-2,1E0,5.455784E-1,-7.411578E-3,-1.9508085E0,8.880642E-1,1.5847033E0,9.564584E2,7.912845E-1,4.6113113E1,6.918148E0,-1.0046847E-2,-1.0303127E-1,-6.6409975E-2,7.584463E-2,-1.0303127E-1,1.0303127E-1,9.636268E-2,-1.0303127E-1,-1.0303127E-1,1.0191387E-1,-1.0303127E-1,-4.6828613E-2,1.0303127E-1,-1.0303127E-1,-1.0303127E-1,1.0303127E-1],"split_indices":[85,91,97,25,106,53,56,106,86,56,78,75,60,86,13,0,0,0,0,0,0,0,0,0,0,0,0,0,0,0,0],"split_type":[0,0,0,0,0,0,0,0,0,0,0,0,0,0,0,0,0,0,0,0,0,0,0,0,0,0,0,0,0,0,0],"sum_hessian":[1.5268135E3,1.0498756E3,4.7693793E2,3.5492822E2,6.949473E2,4.0312186E2,7.381609E1,1.8478365E2,1.7014456E2,2.8557404E1,6.6638995E2,2.3337862E1,3.79784E2,2.8480742E1,4.533535E1,6.2980373E1,1.2180328E2,6.840373E1,1.0174084E2,2.25932E1,5.9642034E0,6.568368E2,9.553172E0,5.938175E0,1.7399687E1,3.7096335E2,8.820644E0,3.0951204E0,2.538562E1,3.8742363E0,4.1461113E1],"tree_param":{"num_deleted":"0","num_feature":"136","num_nodes":"31","size_leaf_vector":"1"}},{"base_weights":[-1.1973437E-1,3.1627908E-1,-1E0,-7.2921836E-1,6.013915E-1,-1.0303127E-1,-2.1498919E-1,-1E0,9.0588593E-1,7.8581375E-1,-6.5527695E-1,-1E0,7.1251935E-1,-1.0303127E-1,1.0303127E-1,-1.0303127E-1,1.0303127E-1,-1.0303127E-1,9.4546705E-2,-1.0303127E-1,1.0303127E-1,6.589221E-2,-1.0303127E-1,1.0026825E-1,-1.0303127E-1],"categories":[],"categories_nodes":[],"categories_segments":[],"categories_sizes":[],"default_left":[0,0,0,0,0,0,0,0,0,0,0,0,0,0,0,0,0,0,0,0,0,0,0,0,0],"id":9,"left_children":[1,3,5,7,9,-1,11,13,15,17,19,21,23,-1,-1,-1,-1,-1,-1,-1,-1,-1,-1,-1,-1],"loss_changes":[6.02656E2,2.9581332E2,7.9733215E1,1.173384E2,1.8071823E2,0E0,1.02124565E2,6.613103E1,2.1529472E1,2.0459961E2,9.6272675E1,1.9742882E1,3.5871407E1,0E0,0E0,0E0,0E0,0E0,0E0,0E0,0E0,0E0,0E0,0E0,0E0],"parents":[2147483647,0,0,1,1,2,2,3,3,4,4,6,6,7,7,8,8,9,9,10,10,11,11,12,12],"right_children":[2,4,6,8,10,-1,12,14,16,18,20,22,24,-1,-1,-1,-1,-1,-1,-1,-1,-1,-1,-1,-1],"split_conditions":[4.205814E1,9.844398E0,1.6666666E0,7.2448134E-2,3.8240347E-2,-1.0303127E-1,9.883256E-3,2.0326493E0,9.4936535E-2,5.1665353E-3,1.4746267E-1,-1.5209875E0,5.8978496E0,-1.0303127E-1,1.0303127E-1,-1.0303127E-1,1.0303127E-1,-1.0303127E-1,9.4546705E-2,-1.0303127E-1,1.0303127E-1,6.589221E-2,-1.0303127E-1,1.0026825E-1,-1.0303127E-1],"split_indices":[83,97,93,82,57,0,105,124,81,98,105,78,22,0,0,0,0,0,0,0,0,0,0,0,0],"split_type":[0,0,0,0,0,0,0,0,0,0,0,0,0,0,0,0,0,0,0,0,0,0,0,0,0],"sum_hessian":[1.4411047E3,9.923298E2,4.4877496E2,2.1262201E2,7.7970776E2,3.1937137E2,1.2940361E2,1.7603867E2,3.6583347E1,6.799315E2,9.977626E1,6.740198E1,6.200163E1,1.6371523E2,1.2323437E1,3.271637E0,3.331171E1,3.4637558E1,6.4529395E2,7.5692696E1,2.4083565E1,7.33335E0,6.0068626E1,5.5915165E1,6.086464E0],"tree_param":{"num_deleted":"0","num_feature":"136","num_nodes":"25","size_leaf_vector":"1"}},{"base_weights":[-8.0914356E-2,-1.0303127E-1,2.5194284E-1,-4.8974568E-1,5.952688E-1,1.16677046E-1,-9.982047E-1,-1E0,7.9027456E-1,-1.0303127E-1,3.3084672E-2,1.0303127E-1,-1.0303127E-1,-1.0303127E-1,1.0303127E-1,-1.0303127E-1,8.963934E-2],"categories":[],"categories_nodes":[],"categories_segments":[],"categories_sizes":[],"default_left":[0,0,0,0,0,0,0,0,0,0,0,0,0,0,0,0,0],"id":10,"left_children":[1,-1,3,5,7,9,11,13,15,-1,-1,-1,-1,-1,-1,-1,-1],"loss_changes":[5.724787E2,0E0,2.8917953E2,1.1080751E2,2.5152124E2,5.2468536E1,7.9479996E1,7.12383E1,1.1792651E2,0E0,0E0,0E0,0E0,0E0,0E0,0E0,0E0],"parents":[2147483647,0,0,2,2,3,3,4,4,5,5,6,6,7,7,8,8],"right_children":[2,-1,4,6,8,10,12,14,16,-1,-1,-1,-1,-1,-1,-1,-1],"split_conditions":[9.563566E2,-1.0303127E-1,5.7183E-1,-2.0122055E-3,-4.8537105E-2,1.9755462E-1,9.572133E2,1.5032501E0,1.6113957E0,-1.0303127E-1,3.3084672E-2,1.0303127E-1,-1.0303127E-1,-1.0303127E-1,1.0303127E-1,-1.0303127E-1,8.963934E-2],"split_indices":[103,0,77,106,106,126,74,66,16,0,0,0,0,0,0,0,0],"split_type":[0,0,0,0,0,0,0,0,0,0,0,0,0,0,0,0,0],"sum_hessian":[1.4293646E3,2.9377957E2,1.135585E3,3.5932224E2,7.7626276E2,1.6387341E2,1.9544882E2,8.1422745E1,6.9484E2,1.672957E1,1.4714383E2,1.6905626E1,1.785432E2,6.607568E1,1.5347063E1,2.4274662E1,6.7056537E2],"tree_param":{"num_deleted":"0","num_feature":"136","num_nodes":"17","size_leaf_vector":"1"}},{"base_weights":[-1.0957873E-1,-9.780271E-1,4.3910432E-1,-1E0,5.191879E-1,6.504827E-1,-1E0,-1E0,1E0,8.4000045E-1,-1.0303127E-1,-1.0303127E-1,7.594655E-1,5.406254E-1,-1E0,-3.972375E-2,-1.0303127E-1,6.780918E-2,1.0303127E-1,1.0303127E-1,-1.0303127E-1,-1.0303127E-1,8.441003E-2,-1.0303127E-1,1.0303127E-1,-1.0303127E-1,1.0303127E-1],"categories":[],"categories_nodes":[],"categories_segments":[],"categories_sizes":[],"default_left":[0,0,0,0,0,0,0,0,0,0,0,0,0,0,0,0,0,0,0,0,0,0,0,0,0,0,0],"id":11,"left_children":[1,3,5,7,9,11,13,15,17,19,-1,-1,21,23,25,-1,-1,-1,-1,-1,-1,-1,-1,-1,-1,-1,-1],"loss_changes":[6.538176E2,1.6949142E2,2.7189227E2,3.03302E1,4.678871E1,1.5625241E2,3.9973892E1,1.52526245E1,3.9494228E-1,2.8625137E1,0E0,0E0,9.287436E1,2.4507095E1,1.8319336E1,0E0,0E0,0E0,0E0,0E0,0E0,0E0,0E0,0E0,0E0,0E0,0E0],"parents":[2147483647,0,0,1,1,2,2,3,3,4,4,5,5,6,6,7,7,8,8,9,9,12,12,13,13,14,14],"right_children":[2,4,6,8,10,12,14,16,18,20,-1,-1,22,24,26,-1,-1,-1,-1,-1,-1,-1,-1,-1,-1,-1,-1],"split_conditions":[6.9984836E-3,1.0472149E0,2.3276685E-1,2.7379155E0,5.038313E0,9.5598047E2,-7.800613E1,-3.8691603E-2,1.00802716E3,1.2032358E1,-1.0303127E-1,-1.0303127E-1,-9.695566E-2,1.091216E-1,3.75946E0,-3.972375E-2,-1.0303127E-1,6.780918E-2,1.0303127E-1,1.0303127E-1,-1.0303127E-1,-1.0303127E-1,8.441003E-2,-1.0303127E-1,1.0303127E-1,-1.0303127E-1,1.0303127E-1],"split_indices":[107,101,54,124,85,75,85,44,71,17,0,0,106,106,28,0,0,0,0,0,0,0,0,0,0,0,0],"split_type":[0,0,0,0,0,0,0,0,0,0,0,0,0,0,0,0,0,0,0,0,0,0,0,0,0,0,0],"sum_hessian":[1.3720691E3,5.3123645E2,8.4083264E2,4.5769794E2,7.353852E1,7.390627E2,1.0176996E2,4.510734E2,6.6245265E0,6.3949326E1,9.589194E0,3.8245613E1,7.008171E2,1.6830378E1,8.493958E1,4.0428905E1,4.106445E2,3.4738312E0,3.1506953E0,6.0594883E1,3.3544402E0,1.7252506E1,6.835646E2,4.225298E0,1.260508E1,8.157654E1,3.3630419E0],"tree_param":{"num_deleted":"0","num_feature":"136","num_nodes":"27","size_leaf_vector":"1"}},{"base_weights":[-1.3131711E-1,-9.591406E-1,3.8623884E-1,-1E0,3.230463E-1,5.827947E-1,-9.562986E-1,-1E0,1.0303127E-1,-1.0303127E-1,7.489116E-1,-1.0303127E-1,6.884468E-1,-1E0,7.826622E-1,-1.0303127E-1,-5.7662003E-2,1.01816684E-1,-1.0303127E-1,-1.0303127E-1,7.6765925E-2,-1.0303127E-1,1.0303127E-1,-1.0303127E-1,1.0303127E-1],"categories":[],"categories_nodes":[],"categories_segments":[],"categories_sizes":[],"default_left":[0,0,0,0,0,0,0,0,0,0,0,0,0,0,0,0,0,0,0,0,0,0,0,0,0],"id":12,"left_children":[1,3,5,7,9,11,13,15,-1,-1,17,-1,19,21,23,-1,-1,-1,-1,-1,-1,-1,-1,-1,-1],"loss_changes":[5.652161E2,1.3750195E2,2.142108E2,4.1029053E1,6.221323E1,1.3832973E2,6.545601E1,1.0439514E1,0E0,0E0,3.613445E1,0E0,8.937695E1,1.7796326E1,2.181828E1,0E0,0E0,0E0,0E0,0E0,0E0,0E0,0E0,0E0,0E0],"parents":[2147483647,0,0,1,1,2,2,3,3,4,4,5,5,6,6,7,7,10,10,12,12,13,13,14,14],"right_children":[2,4,6,8,10,12,14,16,-1,-1,18,-1,20,22,24,-1,-1,-1,-1,-1,-1,-1,-1,-1,-1],"split_conditions":[6.9984836E-3,8.4273285E-1,6.2625945E-2,3.337253E0,5.159296E-1,9.563566E2,1.5199775E-1,4.842842E0,1.0303127E-1,-1.0303127E-1,1.2032358E1,-1.0303127E-1,1.4540724E0,9.1E1,9.3017495E-1,-1.0303127E-1,-5.7662003E-2,1.01816684E-1,-1.0303127E-1,-1.0303127E-1,7.6765925E-2,-1.0303127E-1,1.0303127E-1,-1.0303127E-1,1.0303127E-1],"split_indices":[107,64,57,90,130,103,105,12,0,0,17,0,16,69,31,0,0,0,0,0,0,0,0,0,0],"split_type":[0,0,0,0,0,0,0,0,0,0,0,0,0,0,0,0,0,0,0,0,0,0,0,0,0],"sum_hessian":[1.3191777E3,5.074769E2,8.117008E2,4.2845163E2,7.902525E1,7.080468E2,1.0365399E2,4.205641E2,7.8875637E0,1.3462455E1,6.55628E1,3.731376E1,6.7073303E2,8.3005775E1,2.0648216E1,3.6666736E2,5.389672E1,5.9871105E1,5.691693E0,1.3472476E1,6.5726056E2,7.9876625E1,3.129148E0,4.017838E0,1.6630377E1],"tree_param":{"num_deleted":"0","num_feature":"136","num_nodes":"25","size_leaf_vector":"1"}},{"base_weights":[-1.1408498E-1,-8.9442295E-1,3.6547744E-1,-1E0,3.4906793E-1,5.9030485E-1,-8.1517845E-1,-1E0,7.602639E-1,-1E0,7.6389337E-1,-1.0303127E-1,6.731492E-1,-1E0,6.615646E-1,-2.7559752E-2,-1.0303127E-1,-1.5191379E-3,1.0303127E-1,8.134092E-2,-1.0303127E-1,1.0303127E-1,-1.0303127E-1,-1.0303127E-1,7.55446E-2,5.9574503E-2,-1.0303127E-1,-1.0303127E-1,1.0303127E-1],"categories":[],"categories_nodes":[],"categories_segments":[],"categories_sizes":[],"default_left":[0,0,0,0,0,0,0,0,0,0,0,0,0,0,0,0,0,0,0,0,0,0,0,0,0,0,0,0,0],"id":13,"left_children":[1,3,5,7,9,11,13,15,17,19,21,-1,23,25,27,-1,-1,-1,-1,-1,-1,-1,-1,-1,-1,-1,-1,-1,-1],"loss_changes":[4.8114758E2,1.3716644E2,2.113893E2,2.820288E1,5.083892E1,1.0166786E2,6.00326E1,2.0773804E1,3.5161858E0,9.90703E0,4.822744E1,0E0,8.4301575E1,3.117688E1,2.4243736E1,0E0,0E0,0E0,0E0,0E0,0E0,0E0,0E0,0E0,0E0,0E0,0E0,0E0,0E0],"parents":[2147483647,0,0,1,1,2,2,3,3,4,4,5,5,6,6,7,7,8,8,9,9,10,10,12,12,13,13,14,14],"right_children":[2,4,6,8,10,12,14,16,18,20,22,-1,24,26,28,-1,-1,-1,-1,-1,-1,-1,-1,-1,-1,-1,-1,-1,-1],"split_conditions":[6.9984836E-3,8.4272265E-1,1.4870366E-1,7.4773426E0,1.7030372E-1,9.563566E2,1.2610443E0,-3.8691603E-2,1.0200298E1,-1.3802125E0,2.226731E0,-1.0303127E-1,-6.5787155E1,-1.9461524E0,9.833518E2,-2.7559752E-2,-1.0303127E-1,-1.5191379E-3,1.0303127E-1,8.134092E-2,-1.0303127E-1,1.0303127E-1,-1.0303127E-1,-1.0303127E-1,7.55446E-2,5.9574503E-2,-1.0303127E-1,-1.0303127E-1,1.0303127E-1],"split_indices":[107,63,54,91,99,103,18,44,84,88,11,0,86,88,73,0,0,0,0,0,0,0,0,0,0,0,0,0,0],"split_type":[0,0,0,0,0,0,0,0,0,0,0,0,0,0,0,0,0,0,0,0,0,0,0,0,0,0,0,0,0],"sum_hessian":[1.2856802E3,4.893759E2,7.963043E2,4.110232E2,7.835267E1,6.689309E2,1.27373375E2,4.0193253E2,9.090694E0,1.6181921E1,6.2170746E1,2.8283567E1,6.4064734E2,1.0406452E2,2.3308855E1,3.8736164E1,3.6319635E2,3.9110591E0,5.179635E0,3.0824752E0,1.3099445E1,5.5361244E1,6.809505E0,1.5573496E1,6.2507385E2,1.2505742E1,9.155878E1,4.4625993E0,1.8846256E1],"tree_param":{"num_deleted":"0","num_feature":"136","num_nodes":"29","size_leaf_vector":"1"}},{"base_weights":[-1.2179443E-1,-5.350254E-1,5.855939E-1,-1.0303127E-1,-2.4232753E-1,8.523301E-1,-5.626467E-1,3.3926964E-1,-6.1046E-1,-7.5190556E-1,9.207816E-1,-1E0,1E0,-1.0303127E-1,5.233671E-2,-9.532807E-2,2.7011657E-2,-1.0303127E-1,1.0303127E-1,-1.0303127E-1,9.861385E-2,-1.0303127E-1,1.0303127E-1,3.4799904E-2,1.0303127E-1],"categories":[],"categories_nodes":[],"categories_segments":[],"categories_sizes":[],"default_left":[0,0,0,0,0,0,0,0,0,0,0,0,0,0,0,0,0,0,0,0,0,0,0,0,0],"id":14,"left_children":[1,3,5,-1,7,9,11,13,15,17,19,21,23,-1,-1,-1,-1,-1,-1,-1,-1,-1,-1,-1,-1],"loss_changes":[3.6058255E2,1.4824771E2,1.3932565E2,0E0,1.18091125E2,4.054834E1,7.8740944E1,6.46248E1,9.278264E1,3.3155132E1,3.4418945E1,3.627768E1,1.3642082E0,0E0,0E0,0E0,0E0,0E0,0E0,0E0,0E0,0E0,0E0,0E0,0E0],"parents":[2147483647,0,0,1,1,2,2,4,4,5,5,6,6,7,7,8,8,9,9,10,10,11,11,12,12],"right_children":[2,4,6,-1,8,10,12,14,16,18,20,22,24,-1,-1,-1,-1,-1,-1,-1,-1,-1,-1,-1,-1],"split_conditions":[9.967163E0,9.564584E2,3.72069E-2,-1.0303127E-1,-3.448985E-1,-4.4770937E0,2.7101681E0,1.6456891E0,4.6E0,2.2191817E-1,1.7123682E0,2.533428E1,8.921274E-1,-1.0303127E-1,5.233671E-2,-9.532807E-2,2.7011657E-2,-1.0303127E-1,1.0303127E-1,-1.0303127E-1,9.861385E-2,-1.0303127E-1,1.0303127E-1,3.4799904E-2,1.0303127E-1],"split_indices":[97,75,57,0,78,12,90,16,95,80,16,109,9,0,0,0,0,0,0,0,0,0,0,0,0],"split_type":[0,0,0,0,0,0,0,0,0,0,0,0,0,0,0,0,0,0,0,0,0,0,0,0,0],"sum_hessian":[1.2334926E3,7.786448E2,4.5484778E2,2.2714139E2,5.515034E2,3.691099E2,8.573788E1,2.1376813E2,3.377353E2,1.5098698E1,3.540112E2,6.476917E1,2.0968706E1,1.6733255E1,1.9703487E2,2.4820699E2,8.952829E1,8.3349495E0,6.763747E0,4.0381255E0,3.4997308E2,5.740086E1,7.3683085E0,3.1360724E0,1.7832634E1],"tree_param":{"num_deleted":"0","num_feature":"136","num_nodes":"25","size_leaf_vector":"1"}},{"base_weights":[-1.3170628E-1,2.0900998E-1,-9.4297963E-1,-4.433042E-1,5.480023E-1,-1E0,-1.989327E-1,-9.5585084E-1,1.2049206E-2,-6.7985106E-1,6.488856E-1,3.6328163E-2,-1.0303127E-1,-9.907074E-1,4.8181722E-1,1.01215914E-1,-1.0303127E-1,1.0303127E-1,-4.5268532E-2,-1.0303127E-1,7.99974E-2,-1.0303127E-1,7.329076E-2,-1.0303127E-1,1.9670077E-2,-1.0303127E-1,7.342002E-2],"categories":[],"categories_nodes":[],"categories_segments":[],"categories_sizes":[],"default_left":[0,0,0,0,0,0,0,0,0,0,0,0,0,0,0,0,0,0,0,0,0,0,0,0,0,0,0],"id":15,"left_children":[1,3,5,7,9,11,13,15,17,19,21,-1,-1,23,25,-1,-1,-1,-1,-1,-1,-1,-1,-1,-1,-1,-1],"loss_changes":[3.2458377E2,1.8286798E2,6.585303E1,6.60075E1,6.74156E1,5.6722717E0,5.629315E1,3.2884087E1,7.2019714E1,3.7396812E1,6.523529E1,0E0,0E0,1.0213615E1,2.6048332E1,0E0,0E0,0E0,0E0,0E0,0E0,0E0,0E0,0E0,0E0,0E0,0E0],"parents":[2147483647,0,0,1,1,2,2,3,3,4,4,5,5,6,6,7,7,8,8,9,9,10,10,13,13,14,14],"right_children":[2,4,6,8,10,12,14,16,18,20,22,-1,-1,24,26,-1,-1,-1,-1,-1,-1,-1,-1,-1,-1,-1,-1],"split_conditions":[2.8940332E1,1.5495408E0,1.6666666E0,6.425361E-1,2.735911E-1,-3.1158802E-1,4.7761984E-3,3.873104E-2,9.780427E2,6.259577E-1,-8.1889336E1,3.6328163E-2,-1.0303127E-1,7.301834E-1,-1.519532E-1,1.01215914E-1,-1.0303127E-1,1.0303127E-1,-4.5268532E-2,-1.0303127E-1,7.99974E-2,-1.0303127E-1,7.329076E-2,-1.0303127E-1,1.9670077E-2,-1.0303127E-1,7.342002E-2],"split_indices":[85,91,93,25,109,49,106,60,74,50,86,0,0,56,8,0,0,0,0,0,0,0,0,0,0,0,0],"split_type":[0,0,0,0,0,0,0,0,0,0,0,0,0,0,0,0,0,0,0,0,0,0,0,0,0,0,0],"sum_hessian":[1.1742048E3,8.269187E2,3.4728607E2,2.827718E2,5.441469E2,2.4288933E2,1.04396736E2,1.330316E2,1.4974017E2,4.130656E1,5.0284036E2,3.089517E0,2.3979982E2,4.8264023E1,5.6132713E1,8.422374E0,1.2460923E2,4.444424E1,1.0529594E2,2.8126488E1,1.3180075E1,1.3757969E1,4.890824E2,4.1070137E1,7.193886E0,5.227864E0,5.0904846E1],"tree_param":{"num_deleted":"0","num_feature":"136","num_nodes":"27","size_leaf_vector":"1"}},{"base_weights":[-1.1028831E-1,-8.0777E-1,3.1366205E-1,-1E0,3.013832E-1,-1E0,4.4982252E-1,-1E0,-1.4673212E-1,-1E0,7.058079E-1,-1.0303127E-1,8.999814E-1,-1.0303127E-1,5.52627E-1,-1.0303127E-1,-7.5575034E-4,-1.0303127E-1,8.4610075E-2,4.1374817E-2,-1.0303127E-1,1.0303127E-1,-1.0303127E-1,1.0303127E-1,7.0011625E-3,-2.7347323E-2,7.227733E-2],"categories":[],"categories_nodes":[],"categories_segments":[],"categories_sizes":[],"default_left":[0,0,0,0,0,0,0,0,0,0,0,0,0,0,0,0,0,0,0,0,0,0,0,0,0,0,0],"id":16,"left_children":[1,3,5,7,9,11,13,15,17,19,21,-1,23,-1,25,-1,-1,-1,-1,-1,-1,-1,-1,-1,-1,-1,-1],"loss_changes":[3.3873962E2,1.0712146E2,1.3030402E2,3.328244E1,4.4017525E1,4.485453E1,1.09030045E2,8.260651E0,4.010757E1,6.151737E0,3.9831024E1,0E0,3.0203714E0,0E0,7.421823E1,0E0,0E0,0E0,0E0,0E0,0E0,0E0,0E0,0E0,0E0,0E0,0E0],"parents":[2147483647,0,0,1,1,2,2,3,3,4,4,5,5,6,6,7,7,8,8,9,9,10,10,12,12,14,14],"right_children":[2,4,6,8,10,12,14,16,18,20,22,-1,24,-1,26,-1,-1,-1,-1,-1,-1,-1,-1,-1,-1,-1,-1],"split_conditions":[6.9984836E-3,8.4272265E-1,-5.17671E-2,7.206296E-1,6.380929E-1,1.5032501E0,9.563566E2,6.0874265E-1,5.6E0,8.4287834E-1,2.226731E0,-1.0303127E-1,2.2943249E0,-1.0303127E-1,7.8452736E-2,-1.0303127E-1,-7.5575034E-4,-1.0303127E-1,8.4610075E-2,4.1374817E-2,-1.0303127E-1,1.0303127E-1,-1.0303127E-1,1.0303127E-1,7.0011625E-3,-2.7347323E-2,7.227733E-2],"split_indices":[107,63,105,90,114,66,103,59,95,3,11,0,25,0,61,0,0,0,0,0,0,0,0,0,0,0,0],"split_type":[0,0,0,0,0,0,0,0,0,0,0,0,0,0,0,0,0,0,0,0,0,0,0,0,0,0,0],"sum_hessian":[1.1455049E3,4.3305203E2,7.124529E2,3.603642E2,7.2687836E1,6.554352E1,6.4690936E2,3.1463644E2,4.572774E1,1.525539E1,5.7432446E1,5.3129524E1,1.2413997E1,3.7601196E1,6.0930817E2,3.062438E2,8.392631E0,2.3609602E1,2.2118137E1,3.120587E0,1.2134803E1,5.1398457E1,6.033989E0,8.783861E0,3.630136E0,9.381085E1,5.154973E2],"tree_param":{"num_deleted":"0","num_feature":"136","num_nodes":"27","size_leaf_vector":"1"}},{"base_weights":[-1.1671578E-1,-8.3507186E-1,2.9217952E-1,-9.849557E-1,8.807924E-1,-6.131028E-1,4.8512632E-1,-1E0,1.7807476E-1,1E0,-1.0303127E-1,-1E0,6.890075E-2,-1.0303127E-1,5.5038124E-1,-5.1887825E-2,-1.0303127E-1,-1.0303127E-1,8.510661E-2,1.0303127E-1,5.095774E-2,-1.0303127E-1,1.0560263E-2,-1.0303127E-1,4.572097E-2,-1.0303127E-1,6.270662E-2],"categories":[],"categories_nodes":[],"categories_segments":[],"categories_sizes":[],"default_left":[0,0,0,0,0,0,0,0,0,0,0,0,0,0,0,0,0,0,0,0,0,0,0,0,0,0,0],"id":17,"left_children":[1,3,5,7,9,11,13,15,17,19,-1,21,23,-1,25,-1,-1,-1,-1,-1,-1,-1,-1,-1,-1,-1,-1],"loss_changes":[3.2430725E2,1.0301419E2,1.2290278E2,3.5737183E1,2.2493773E1,5.335687E1,7.55387E1,1.4011841E1,2.4142414E1,1.1248398E0,0E0,3.7984009E0,3.313616E1,0E0,6.3907043E1,0E0,0E0,0E0,0E0,0E0,0E0,0E0,0E0,0E0,0E0,0E0,0E0],"parents":[2147483647,0,0,1,1,2,2,3,3,4,4,5,5,6,6,7,7,8,8,9,9,11,11,12,12,14,14],"right_children":[2,4,6,8,10,12,14,16,18,20,-1,22,24,-1,26,-1,-1,-1,-1,-1,-1,-1,-1,-1,-1,-1,-1],"split_conditions":[6.9984836E-3,1.4056536E1,1.1009977E0,1.0117212E1,2.226731E0,8.705706E-1,1.4540724E0,-1.4815319E-2,1.3329196E-1,5.029062E-1,-1.0303127E-1,8.3E1,1.04620166E-1,-1.0303127E-1,-9.695566E-2,-5.1887825E-2,-1.0303127E-1,-1.0303127E-1,8.510661E-2,1.0303127E-1,5.095774E-2,-1.0303127E-1,1.0560263E-2,-1.0303127E-1,4.572097E-2,-1.0303127E-1,6.270662E-2],"split_indices":[107,117,109,97,11,9,16,106,81,77,0,65,81,0,106,0,0,0,0,0,0,0,0,0,0,0,0],"split_type":[0,0,0,0,0,0,0,0,0,0,0,0,0,0,0,0,0,0,0,0,0,0,0,0,0,0,0],"sum_hessian":[1.1040338E3,4.0047424E2,7.0355963E2,3.6830835E2,3.2165905E1,1.2360006E2,5.7995953E2,3.425089E2,2.5799437E1,2.9121872E1,3.044034E0,6.0718704E1,6.2881355E1,1.6364162E1,5.635954E2,5.69118E1,2.855971E2,7.8248587E0,1.7974579E1,2.467407E1,4.447802E0,5.7603725E1,3.1149788E0,1.2518508E1,5.036285E1,1.5369014E1,5.482264E2],"tree_param":{"num_deleted":"0","num_feature":"136","num_nodes":"27","size_leaf_vector":"1"}},{"base_weights":[-1.5154596E-1,-6.707543E-1,3.2495952E-1,-2.5257328E-1,-1E0,4.7761092E-1,-8.5648876E-1,1E0,-4.2182148E-1,-1E0,3.4443542E-2,-7.6059294E-1,5.763148E-1,-1E0,9.9097985E-1,1.0303127E-1,-3.675549E-2,-7.934757E-2,5.5513855E-2,-1.0303127E-1,-4.3179333E-2,-1.0303127E-1,1.0303127E-1,-2.4247104E-2,7.498621E-2,8.1100404E-2,-1.0303127E-1,7.345152E-2,1.0303127E-1],"categories":[],"categories_nodes":[],"categories_segments":[],"categories_sizes":[],"default_left":[0,0,0,0,0,0,0,0,0,0,0,0,0,0,0,0,0,0,0,0,0,0,0,0,0,0,0,0,0],"id":18,"left_children":[1,3,5,7,9,11,13,15,17,19,-1,21,23,25,27,-1,-1,-1,-1,-1,-1,-1,-1,-1,-1,-1,-1,-1,-1],"loss_changes":[2.5939914E2,9.875308E1,9.8608246E1,6.978331E1,9.827759E0,5.918203E1,2.6931969E1,1.0313164E1,8.275656E1,2.0742493E0,0E0,5.050567E1,5.514189E1,2.3638275E1,2.5493145E-1,0E0,0E0,0E0,0E0,0E0,0E0,0E0,0E0,0E0,0E0,0E0,0E0,0E0,0E0],"parents":[2147483647,0,0,1,1,2,2,3,3,4,4,5,5,6,6,7,7,8,8,9,9,11,11,12,12,13,13,14,14],"right_children":[2,4,6,8,10,12,14,16,18,20,-1,22,24,26,28,-1,-1,-1,-1,-1,-1,-1,-1,-1,-1,-1,-1,-1,-1],"split_conditions":[1.0405836E-2,7.5541286E0,2.3276685E-1,9.573537E2,4.25198E0,-4.4610485E-2,3.8354893E0,8.045697E0,8.8641363E-1,7.912845E-1,3.4443542E-2,7.045564E0,1.2306113E-2,-1.7217215E0,4.1635307E1,1.0303127E-1,-3.675549E-2,-7.934757E-2,5.5513855E-2,-1.0303127E-1,-4.3179333E-2,-1.0303127E-1,1.0303127E-1,-2.4247104E-2,7.498621E-2,8.1100404E-2,-1.0303127E-1,7.345152E-2,1.0303127E-1],"split_indices":[107,86,54,103,1,106,38,24,101,60,0,10,98,89,13,0,0,0,0,0,0,0,0,0,0,0,0,0,0],"split_type":[0,0,0,0,0,0,0,0,0,0,0,0,0,0,0,0,0,0,0,0,0,0,0,0,0,0,0,0,0],"sum_hessian":[1.0484222E3,5.0173233E2,5.466899E2,2.7414645E2,2.275859E2,4.8414426E2,6.25456E1,2.6861248E1,2.4728519E2,2.2207668E2,5.509232E0,3.5736477E1,4.4840778E2,5.543811E1,7.1074896E0,2.1269457E1,5.5917907E0,1.8148718E2,6.579801E1,2.1589655E2,6.180125E0,2.3221985E1,1.2514492E1,7.052155E1,3.7788623E2,7.389797E0,4.8048313E1,3.2303672E0,3.8771224E0],"tree_param":{"num_deleted":"0","num_feature":"136","num_nodes":"29","size_leaf_vector":"1"}},{"base_weights":[-1.2286479E-1,-8.302462E-1,2.1254158E-1,-9.7547287E-1,7.869157E-1,4.192681E-1,-7.3807526E-1,-1E0,1.902214E-1,-1.0303127E-1,1.0303127E-1,-5.887891E-1,5.524049E-1,4.7962222E-1,-1E0,-4.2292167E-2,-1.0303127E-1,-7.383866E-2,1.0303127E-1,-1.0303127E-1,2.5215277E-2,-1.0303127E-1,6.251274E-2,-1.0303127E-1,1.0303127E-1,-1.0303127E-1,6.5039545E-2],"categories":[],"categories_nodes":[],"categories_segments":[],"categories_sizes":[],"default_left":[0,0,0,0,0,0,0,0,0,0,0,0,0,0,0,0,0,0,0,0,0,0,0,0,0,0,0],"id":19,"left_children":[1,3,5,7,9,11,13,15,17,-1,-1,19,21,23,25,-1,-1,-1,-1,-1,-1,-1,-1,-1,-1,-1,-1],"loss_changes":[2.410163E2,7.674925E1,1.3542267E2,2.6540558E1,2.6721815E1,7.5970535E1,4.1985817E1,1.5594086E1,1.5314474E1,0E0,0E0,3.3202576E1,5.3524582E1,2.8966953E1,2.6029411E1,0E0,0E0,0E0,0E0,0E0,0E0,0E0,0E0,0E0,0E0,0E0,0E0],"parents":[2147483647,0,0,1,1,2,2,3,3,4,4,5,5,6,6,7,7,8,8,11,11,12,12,13,13,14,14],"right_children":[2,4,6,8,10,12,14,16,18,-1,-1,20,22,24,26,-1,-1,-1,-1,-1,-1,-1,-1,-1,-1,-1,-1],"split_conditions":[6.0398444E-3,1.4056536E1,1.1817485E-1,1.0148957E1,1.0077043E3,1.5062613E0,-7.800613E1,-1.5781963E-2,1.790869E-1,-1.0303127E-1,1.0303127E-1,9.2541895E0,9.757773E0,1.0191499E-1,1.5973654E0,-4.2292167E-2,-1.0303127E-1,-7.383866E-2,1.0303127E-1,-1.0303127E-1,2.5215277E-2,-1.0303127E-1,6.251274E-2,-1.0303127E-1,1.0303127E-1,-1.0303127E-1,6.5039545E-2],"split_indices":[107,117,54,97,73,14,85,106,80,0,0,26,34,106,28,0,0,0,0,0,0,0,0,0,0,0,0],"split_type":[0,0,0,0,0,0,0,0,0,0,0,0,0,0,0,0,0,0,0,0,0,0,0,0,0,0,0],"sum_hessian":[1.0157673E3,3.2671564E2,6.8905164E2,2.9979904E2,2.691657E1,5.659802E2,1.230714E2,2.809473E2,1.8851751E1,3.7537372E0,2.3162832E1,6.6022156E1,4.999581E2,2.302258E1,1.0004882E2,4.490301E1,2.360443E2,9.379716E0,9.472035E0,3.7398933E1,2.8623226E1,1.2504073E1,4.87454E2,5.8156095E0,1.720697E1,9.02783E1,9.770529E0],"tree_param":{"num_deleted":"0","num_feature":"136","num_nodes":"27","size_leaf_vector":"1"}},{"base_weights":[-9.1156155E-2,1.8674776E-1,-8.6537105E-1,-3.7822032E-1,4.7313923E-1,-9.872086E-1,3.8869455E-1,-1E0,-9.151475E-2,-7.76646E-1,5.934261E-1,-1E0,1.938283E-2,9.790661E-1,-1.0303127E-1,-1.0303127E-1,4.2660804E-3,-1.0303127E-1,1.9056264E-2,8.444327E-2,-1.0303127E-1,-1.0303127E-1,6.753224E-2,-9.160803E-4,-1.0303127E-1,-1.0303127E-1,1.0303127E-1,4.6569638E-2,1.0303127E-1],"categories":[],"categories_nodes":[],"categories_segments":[],"categories_sizes":[],"default_left":[0,0,0,0,0,0,0,0,0,0,0,0,0,0,0,0,0,0,0,0,0,0,0,0,0,0,0,0,0],"id":20,"left_children":[1,3,5,7,9,11,13,15,17,19,21,23,25,27,-1,-1,-1,-1,-1,-1,-1,-1,-1,-1,-1,-1,-1,-1,-1],"loss_changes":[2.1279872E2,1.1776005E2,3.992505E1,6.503216E1,7.261498E1,1.9005295E1,2.3547073E1,3.3950577E0,6.036952E1,3.615471E1,5.760298E1,1.770897E1,2.4456318E1,1.376051E0,0E0,0E0,0E0,0E0,0E0,0E0,0E0,0E0,0E0,0E0,0E0,0E0,0E0,0E0,0E0],"parents":[2147483647,0,0,1,1,2,2,3,3,4,4,5,5,6,6,7,7,8,8,9,9,10,10,11,11,12,12,13,13],"right_children":[2,4,6,8,10,12,14,16,18,20,22,24,26,28,-1,-1,-1,-1,-1,-1,-1,-1,-1,-1,-1,-1,-1,-1,-1],"split_conditions":[4.205814E1,1.5578873E-1,7.4131954E-1,9.360065E0,2.735911E-1,2.3917658E1,2E0,4.2E0,1.124373E0,-7.934606E-1,-1.0486147E2,1E0,7.5513496E0,7.267603E-1,-1.0303127E-1,-1.0303127E-1,4.2660804E-3,-1.0303127E-1,1.9056264E-2,8.444327E-2,-1.0303127E-1,-1.0303127E-1,6.753224E-2,-9.160803E-4,-1.0303127E-1,-1.0303127E-1,1.0303127E-1,4.6569638E-2,1.0303127E-1],"split_indices":[83,76,60,23,109,110,65,94,131,18,83,53,14,11,0,0,0,0,0,0,0,0,0,0,0,0,0,0,0],"split_type":[0,0,0,0,0,0,0,0,0,0,0,0,0,0,0,0,0,0,0,0,0,0,0,0,0,0,0,0,0],"sum_hessian":[9.889658E2,7.277435E2,2.612223E2,2.4480147E2,4.8294205E2,2.3809592E2,2.3126377E1,5.132792E1,1.9347356E2,4.2392742E1,4.4054932E2,2.1977856E2,1.8317354E1,1.7395084E1,5.731292E0,4.8207096E1,3.120822E0,3.676603E1,1.5670752E2,1.1546833E1,3.0845911E1,1.1373813E1,4.291755E2,1.8037683E1,2.0174088E2,7.5801535E0,1.0737201E1,4.6445646E0,1.2750521E1],"tree_param":{"num_deleted":"0","num_feature":"136","num_nodes":"29","size_leaf_vector":"1"}},{"base_weights":[-1.3928138E-1,-7.9045194E-1,1.626295E-1,-1E0,1.7930225E-1,3.0640545E-1,-8.110895E-1,-1E0,1.0303127E-1,5.9748214E-1,-1E0,-1.0303127E-1,3.7976786E-1,-1E0,5.717763E-1,-1.0303127E-1,-4.9186382E-2,-1.0303127E-1,8.605776E-2,2.7747575E-2,-1.0303127E-1,1.195661E-2,8.385709E-2,6.261374E-2,-1.0303127E-1,-1.0303127E-1,1.0303127E-1],"categories":[],"categories_nodes":[],"categories_segments":[],"categories_sizes":[],"default_left":[0,0,0,0,0,0,0,0,0,0,0,0,0,0,0,0,0,0,0,0,0,0,0,0,0,0,0],"id":21,"left_children":[1,3,5,7,9,11,13,15,-1,17,19,-1,21,23,25,-1,-1,-1,-1,-1,-1,-1,-1,-1,-1,-1,-1],"loss_changes":[1.8244385E2,7.3772995E1,8.8768135E1,2.4403442E1,3.075464E1,7.456058E1,4.136136E1,6.35849E0,0E0,2.0745073E1,8.116426E0,0E0,6.11864E1,8.012474E0,1.8732777E1,0E0,0E0,0E0,0E0,0E0,0E0,0E0,0E0,0E0,0E0,0E0,0E0],"parents":[2147483647,0,0,1,1,2,2,3,3,4,4,5,5,6,6,7,7,9,9,10,10,12,12,13,13,14,14],"right_children":[2,4,6,8,10,12,14,16,-1,18,20,-1,22,24,26,-1,-1,-1,-1,-1,-1,-1,-1,-1,-1,-1,-1],"split_conditions":[6.0398444E-3,4.837175E-1,6.1174754E-2,3.0906901E0,7.4377364E-1,7.569771E-1,1.332083E-1,7.206296E-1,1.0303127E-1,4.6099412E-1,-9.8461516E-2,-1.0303127E-1,5.620702E0,-2.1404328E0,9.3017495E-1,-1.0303127E-1,-4.9186382E-2,-1.0303127E-1,8.605776E-2,2.7747575E-2,-1.0303127E-1,1.195661E-2,8.385709E-2,6.261374E-2,-1.0303127E-1,-1.0303127E-1,1.0303127E-1],"split_indices":[107,114,57,90,121,128,106,90,0,130,100,0,10,78,31,0,0,0,0,0,0,0,0,0,0,0,0],"split_type":[0,0,0,0,0,0,0,0,0,0,0,0,0,0,0,0,0,0,0,0,0,0,0,0,0,0,0],"sum_hessian":[9.2794836E2,2.9394974E2,6.3399866E2,2.31635E2,6.231474E1,5.524384E2,8.156025E1,2.2645203E2,5.1829643E0,4.600945E1,1.6305288E1,1.8016336E1,5.3442206E2,6.3651638E1,1.7908613E1,2.031296E2,2.3322435E1,4.9907064E0,4.101874E1,5.0269485E0,1.127834E1,3.3247644E2,2.0194565E2,3.088663E0,6.0562973E1,4.4087024E0,1.349991E1],"tree_param":{"num_deleted":"0","num_feature":"136","num_nodes":"27","size_leaf_vector":"1"}},{"base_weights":[-1.3707946E-1,1.141374E-1,-8.647505E-1,-4.5323923E-1,3.992097E-1,-1.0303127E-1,-2.0256446E-1,9.1873986E-1,-6.401991E-1,5.732439E-1,-5.107991E-1,-1E0,4.0578353E-1,-3.479656E-2,1.0303127E-1,-1.0303127E-1,-1.0122654E-2,-1.0303127E-1,6.722563E-2,-1.0303127E-1,8.4755726E-2,-1.0303127E-1,-3.473251E-2,6.469292E-2,-1.0303127E-1],"categories":[],"categories_nodes":[],"categories_segments":[],"categories_sizes":[],"default_left":[0,0,0,0,0,0,0,0,0,0,0,0,0,0,0,0,0,0,0,0,0,0,0,0,0],"id":22,"left_children":[1,3,5,7,9,-1,11,13,15,17,19,21,23,-1,-1,-1,-1,-1,-1,-1,-1,-1,-1,-1,-1],"loss_changes":[1.6592494E2,1.0913378E2,4.5140656E1,5.7887775E1,7.11295E1,0E0,4.217466E1,6.320822E0,5.9577187E1,5.529911E1,5.1189713E1,2.263752E0,1.8642433E1,0E0,0E0,0E0,0E0,0E0,0E0,0E0,0E0,0E0,0E0,0E0,0E0],"parents":[2147483647,0,0,1,1,2,2,3,3,4,4,6,6,7,7,8,8,9,9,10,10,11,11,12,12],"right_children":[2,4,6,8,10,-1,12,14,16,18,20,22,24,-1,-1,-1,-1,-1,-1,-1,-1,-1,-1,-1,-1],"split_conditions":[4.205814E1,1.5578873E-1,1.6666666E0,-3.315204E-2,1.4870366E-1,-1.0303127E-1,4.7761984E-3,-3.7866964E-3,-2.5034826E0,5.261488E-3,1.3321571E-1,2.4856942E0,5.8978496E0,-3.479656E-2,1.0303127E-1,-1.0303127E-1,-1.0122654E-2,-1.0303127E-1,6.722563E-2,-1.0303127E-1,8.4755726E-2,-1.0303127E-1,-3.473251E-2,6.469292E-2,-1.0303127E-1],"split_indices":[83,76,93,105,54,0,106,40,83,98,105,79,22,0,0,0,0,0,0,0,0,0,0,0,0],"split_type":[0,0,0,0,0,0,0,0,0,0,0,0,0,0,0,0,0,0,0,0,0,0,0,0,0],"sum_hessian":[9.0759406E2,6.746745E2,2.3291954E2,2.2561453E2,4.4905997E2,1.5521767E2,7.7701866E1,2.7050268E1,1.9856427E2,3.7697412E2,7.208584E1,3.1370136E1,4.6331726E1,3.6206877E0,2.3429579E1,9.367602E1,1.04888245E2,1.5030911E1,3.619432E2,5.1495186E1,2.0590652E1,2.6193167E1,5.17697E0,4.1586193E1,4.7455354E0],"tree_param":{"num_deleted":"0","num_feature":"136","num_nodes":"25","size_leaf_vector":"1"}},{"base_weights":[-1.2431014E-1,1.1987296E-1,-8.478915E-1,-2.4735403E-1,4.8233446E-1,-1.0303127E-1,-1.9569585E-1,2.5645784E-1,-6.058551E-1,-7.875173E-1,6.227533E-1,-9.2534316E-1,5.316175E-1,-1.0303127E-1,4.4735417E-2,-2.7547635E-2,-1.0303127E-1,9.535781E-2,-1.0303127E-1,7.2594814E-2,-1.0303127E-1,-1.0303127E-1,2.659859E-2,-1.0303127E-1,8.324337E-2],"categories":[],"categories_nodes":[],"categories_segments":[],"categories_sizes":[],"default_left":[0,0,0,0,0,0,0,0,0,0,0,0,0,0,0,0,0,0,0,0,0,0,0,0,0],"id":23,"left_children":[1,3,5,7,9,-1,11,13,15,17,19,21,23,-1,-1,-1,-1,-1,-1,-1,-1,-1,-1,-1,-1],"loss_changes":[1.5265382E2,8.598564E1,4.2542297E1,5.7961254E1,5.797883E1,0E0,3.906677E1,4.1825504E1,3.5215195E1,3.129913E1,4.298774E1,1.244318E1,1.9816391E1,0E0,0E0,0E0,0E0,0E0,0E0,0E0,0E0,0E0,0E0,0E0,0E0],"parents":[2147483647,0,0,1,1,2,2,3,3,4,4,6,6,7,7,8,8,9,9,10,10,11,11,12,12],"right_children":[2,4,6,8,10,-1,12,14,16,18,20,22,24,-1,-1,-1,-1,-1,-1,-1,-1,-1,-1,-1,-1],"split_conditions":[4.205814E1,4.1573E-1,1.6666666E0,-3.686761E-1,-4.8537105E-2,-1.0303127E-1,1.5978493E-2,-1.8667814E1,4.6E1,6.736337E-2,1.0290949E1,2.0021038E1,3.6111676E-5,-1.0303127E-1,4.4735417E-2,-2.7547635E-2,-1.0303127E-1,9.535781E-2,-1.0303127E-1,7.2594814E-2,-1.0303127E-1,-1.0303127E-1,2.659859E-2,-1.0303127E-1,8.324337E-2],"split_indices":[83,76,93,78,106,0,107,83,53,133,34,110,106,0,0,0,0,0,0,0,0,0,0,0,0],"split_type":[0,0,0,0,0,0,0,0,0,0,0,0,0,0,0,0,0,0,0,0,0,0,0,0,0],"sum_hessian":[8.639044E2,6.459277E2,2.1797673E2,3.2084964E2,3.2507803E2,1.4440329E2,7.357344E1,1.3338686E2,1.874628E2,3.2360218E1,2.927178E2,3.672977E1,3.684367E1,1.0676245E1,1.227106E2,1.1988242E2,6.7580376E1,8.824104E0,2.3536114E1,2.8008255E2,1.2635259E1,2.8750854E1,7.9789176E0,4.3397064E0,3.2503963E1],"tree_param":{"num_deleted":"0","num_feature":"136","num_nodes":"25","size_leaf_vector":"1"}},{"base_weights":[-1.1389439E-1,-1.0303127E-1,4.9448688E-2,-1E0,1.4719474E-1,1.0303127E-1,-1E0,3.0066925E-1,-6.5035915E-1,-1.0303127E-1,1.02734886E-1,-1.0303127E-1,3.9495014E-2,-1.0169611E-1,6.400533E-2],"categories":[],"categories_nodes":[],"categories_segments":[],"categories_sizes":[],"default_left":[0,0,0,0,0,0,0,0,0,0,0,0,0,0,0],"id":24,"left_children":[1,-1,3,5,7,-1,9,11,13,-1,-1,-1,-1,-1,-1],"loss_changes":[1.3546678E2,0E0,7.8857155E1,2.9352928E1,8.176617E1,0E0,1.7416199E1,7.142907E1,4.6162228E1,0E0,0E0,0E0,0E0,0E0,0E0],"parents":[2147483647,0,0,2,2,3,3,4,4,6,6,7,7,8,8],"right_children":[2,-1,4,6,8,-1,10,12,14,-1,-1,-1,-1,-1,-1],"split_conditions":[9.563566E2,-1.0303127E-1,5.1665353E-3,9.5653937E2,3.8240347E-2,1.0303127E-1,5.8919765E-2,-3.8429047E1,1.3190556E-1,-1.0303127E-1,1.02734886E-1,-1.0303127E-1,3.9495014E-2,-1.0169611E-1,6.400533E-2],"split_indices":[103,0,98,103,57,0,57,86,105,0,0,0,0,0,0],"split_type":[0,0,0,0,0,0,0,0,0,0,0,0,0,0,0],"sum_hessian":[8.46574E2,1.2003297E2,7.26541E2,5.861052E1,6.679305E2,6.334093E0,5.2276424E1,5.601511E2,1.0777936E2,4.7921146E1,4.355281E0,2.7613506E1,5.325376E2,8.522074E1,2.255861E1],"tree_param":{"num_deleted":"0","num_feature":"136","num_nodes":"15","size_leaf_vector":"1"}},{"base_weights":[-1.2902959E-1,9.5078625E-2,-7.8843766E-1,-1E0,1.8970986E-1,-1E0,-1.696421E-1,-1E0,8.0071814E-2,-3.864446E-1,4.1246974E-1,-1.0303127E-1,8.423051E-2,-9.612259E-1,3.9297706E-1,3.1236487E-2,-1.0303127E-1,6.539767E-2,-9.040579E-2,-8.98422E-2,5.2796602E-2,-5.94583E-3,-1.0303127E-1,-1.0303127E-1,6.571535E-2],"categories":[],"categories_nodes":[],"categories_segments":[],"categories_sizes":[],"default_left":[0,0,0,0,0,0,0,0,0,0,0,0,0,0,0,0,0,0,0,0,0,0,0,0,0],"id":25,"left_children":[1,3,5,7,9,11,13,15,-1,17,19,-1,-1,21,23,-1,-1,-1,-1,-1,-1,-1,-1,-1,-1],"loss_changes":[1.1838933E2,6.88679E1,3.7987206E1,1.7711815E1,7.1263565E1,1.8480423E1,3.043782E1,5.4576263E0,0E0,7.763745E1,5.14225E1,0E0,0E0,6.377386E0,1.601156E1,0E0,0E0,0E0,0E0,0E0,0E0,0E0,0E0,0E0,0E0],"parents":[2147483647,0,0,1,1,2,2,3,3,4,4,5,5,6,6,7,7,9,9,10,10,13,13,14,14],"right_children":[2,4,6,8,10,12,14,16,-1,18,20,-1,-1,22,24,-1,-1,-1,-1,-1,-1,-1,-1,-1,-1],"split_conditions":[2.0043571E1,-4.974732E1,1.6666666E0,1.8463418E-1,6.709203E-2,1.0044463E3,7.258488E-3,9.675503E0,8.0071814E-2,9.7680115E2,8.977644E-1,-1.0303127E-1,8.423051E-2,-6.0356146E-1,3.1739407E0,3.1236487E-2,-1.0303127E-1,6.539767E-2,-9.040579E-2,-8.98422E-2,5.2796602E-2,-5.94583E-3,-1.0303127E-1,-1.0303127E-1,6.571535E-2],"split_indices":[85,86,93,80,99,73,80,34,0,73,110,0,0,78,13,0,0,0,0,0,0,0,0,0,0],"split_type":[0,0,0,0,0,0,0,0,0,0,0,0,0,0,0,0,0,0,0,0,0,0,0,0,0],"sum_hessian":[8.010428E2,5.9785486E2,2.0318799E2,4.2665825E1,5.55189E2,1.3489081E2,6.8297165E1,3.706911E1,5.596714E0,1.5479474E2,4.003943E2,1.2930775E2,5.5830636E0,2.8375658E1,3.9921513E1,3.202856E0,3.3866257E1,5.0258457E1,1.0453628E2,2.8902391E1,3.7149188E2,7.2411E0,2.1134558E1,5.0747876E0,3.484672E1],"tree_param":{"num_deleted":"0","num_feature":"136","num_nodes":"25","size_leaf_vector":"1"}},{"base_weights":[-1.1585629E-1,-6.883933E-1,1.2566525E-1,-8.391249E-1,7.9403406E-1,1.8820089E-1,-1E0,-3.6148572E-1,-1E0,-4.6731997E-2,1E0,-1.0303127E-1,2.5736728E-1,-1.0303127E-1,4.5375846E-2,-1.0303127E-1,1.5967777E-2,-1.0303127E-1,-2.4066199E-2,1.0303127E-1,7.120395E-2,4.111668E-2,-4.3004308E-2],"categories":[],"categories_nodes":[],"categories_segments":[],"categories_sizes":[],"default_left":[0,0,0,0,0,0,0,0,0,0,0,0,0,0,0,0,0,0,0,0,0,0,0],"id":26,"left_children":[1,3,5,7,9,11,13,15,17,-1,19,-1,21,-1,-1,-1,-1,-1,-1,-1,-1,-1,-1],"loss_changes":[1.0894206E2,5.224106E1,5.7894897E1,2.8332443E1,8.241253E0,5.915126E1,6.4983025E0,3.288726E1,3.0881958E0,0E0,2.9027367E-1,0E0,4.954506E1,0E0,0E0,0E0,0E0,0E0,0E0,0E0,0E0,0E0,0E0],"parents":[2147483647,0,0,1,1,2,2,3,3,4,4,5,5,6,6,7,7,8,8,10,10,12,12],"right_children":[2,4,6,8,10,12,14,16,18,-1,20,-1,22,-1,-1,-1,-1,-1,-1,-1,-1,-1,-1],"split_conditions":[6.0398444E-3,2.2086446E0,2.7921977E0,3E1,7.2981167E0,2.7981886E-1,3.224032E1,9.845188E0,1.2701359E0,-4.6731997E-2,-6.1532147E-2,-1.0303127E-1,2.8940332E1,-1.0303127E-1,4.5375846E-2,-1.0303127E-1,1.5967777E-2,-1.0303127E-1,-2.4066199E-2,1.0303127E-1,7.120395E-2,4.111668E-2,-4.3004308E-2],"split_indices":[107,114,116,53,26,116,41,97,35,0,100,0,85,0,0,0,0,0,0,0,0,0,0],"split_type":[0,0,0,0,0,0,0,0,0,0,0,0,0,0,0,0,0,0,0,0,0,0,0],"sum_hessian":[7.877563E2,2.3371881E2,5.540375E2,2.1215419E2,2.1564617E1,5.382658E2,1.577168E1,8.298511E1,1.2916908E2,4.321666E0,1.7242952E1,2.0171309E1,5.180945E2,1.2650692E1,3.1209872E0,3.298107E1,5.0004036E1,1.2389328E2,5.275799E0,1.4086626E1,3.1563256E0,4.2818417E2,8.991034E1],"tree_param":{"num_deleted":"0","num_feature":"136","num_nodes":"23","size_leaf_vector":"1"}},{"base_weights":[-1.2926313E-1,-7.486032E-1,1.12369575E-1,-8.978781E-1,7.287607E-1,2.6071227E-1,-6.648866E-1,-3.6284575E-1,-1E0,-1.0303127E-1,1E0,-9.959909E-1,3.5367337E-1,-8.265478E-1,1.0303127E-1,-1.0303127E-1,3.7485916E-2,-1.0303127E-1,4.990006E-2,9.319251E-2,1.0303127E-1,-1.0303127E-1,4.3276176E-2,-1.0303127E-1,4.4200603E-2,-9.888521E-2,1.0184857E-1],"categories":[],"categories_nodes":[],"categories_segments":[],"categories_sizes":[],"default_left":[0,0,0,0,0,0,0,0,0,0,0,0,0,0,0,0,0,0,0,0,0,0,0,0,0,0,0],"id":27,"left_children":[1,3,5,7,9,11,13,15,17,-1,19,21,23,25,-1,-1,-1,-1,-1,-1,-1,-1,-1,-1,-1,-1,-1],"loss_changes":[1.1357088E2,4.69821E1,6.2945354E1,1.7723373E1,1.2959306E1,5.356154E1,2.470404E1,2.7072124E1,9.429245E0,0E0,2.62928E-2,2.6109976E1,5.226569E1,1.9383045E1,0E0,0E0,0E0,0E0,0E0,0E0,0E0,0E0,0E0,0E0,0E0,0E0,0E0],"parents":[2147483647,0,0,1,1,2,2,3,3,4,4,5,5,6,6,7,7,8,8,10,10,11,11,12,12,13,13],"right_children":[2,4,6,8,10,12,14,16,18,-1,20,22,24,26,-1,-1,-1,-1,-1,-1,-1,-1,-1,-1,-1,-1,-1],"split_conditions":[6.0398444E-3,7.3408526E-1,1.1817485E-1,-4.5833042E-1,8.2981896E-1,5.1665353E-3,8.2E1,5.4787326E-1,1.8626559E0,-1.0303127E-1,5.0784445E-1,5E-1,-4.0206234E1,1.3080849E1,1.0303127E-1,-1.0303127E-1,3.7485916E-2,-1.0303127E-1,4.990006E-2,9.319251E-2,1.0303127E-1,-1.0303127E-1,4.3276176E-2,-1.0303127E-1,4.4200603E-2,-9.888521E-2,1.0184857E-1],"split_indices":[107,99,54,78,101,98,69,35,35,0,118,93,86,91,0,0,0,0,0,0,0,0,0,0,0,0,0],"split_type":[0,0,0,0,0,0,0,0,0,0,0,0,0,0,0,0,0,0,0,0,0,0,0,0,0,0,0],"sum_hessian":[7.588165E2,2.1296263E2,5.4585394E2,1.9342531E2,1.9537325E1,4.583817E2,8.747222E1,4.8651726E1,1.4477357E2,3.1270254E0,1.64103E1,3.1562664E1,4.2681903E2,8.007911E1,7.393117E0,2.3490673E1,2.5161055E1,1.4050491E2,4.268672E0,3.947378E0,1.2462921E1,1.8625195E1,1.2937469E1,1.8214813E1,4.0860422E2,7.4610085E1,5.469024E0],"tree_param":{"num_deleted":"0","num_feature":"136","num_nodes":"27","size_leaf_vector":"1"}},{"base_weights":[-1.1677953E-1,-7.786848E-1,8.9866966E-2,2.8443718E-1,-9.992049E-1,-1E0,1.9619623E-1,9.0555525E-1,-1.0303127E-1,-1E0,2.9936653E-1,3.4561686E-2,-1.0303127E-1,-9.228568E-1,2.855205E-1,-4.596144E-2,1.0303127E-1,3.8748293E-3,-1.0303127E-1,1.0303127E-1,-1.0303127E-1,-1.0303127E-1,7.633973E-2,-2.217031E-3,8.065052E-2],"categories":[],"categories_nodes":[],"categories_segments":[],"categories_sizes":[],"default_left":[0,0,0,0,0,0,0,0,0,0,0,0,0,0,0,0,0,0,0,0,0,0,0,0,0],"id":28,"left_children":[1,3,5,7,9,11,13,15,-1,17,19,-1,-1,21,23,-1,-1,-1,-1,-1,-1,-1,-1,-1,-1],"loss_changes":[1.0040556E2,4.0952293E1,7.804389E1,2.9506395E1,2.3265137E1,5.676716E0,5.1875595E1,6.443186E0,0E0,1.3868362E1,2.0070738E1,0E0,0E0,2.6555187E1,7.337549E1,0E0,0E0,0E0,0E0,0E0,0E0,0E0,0E0,0E0,0E0],"parents":[2147483647,0,0,1,1,2,2,3,3,4,4,5,5,6,6,7,7,9,9,10,10,13,13,14,14],"right_children":[2,4,6,8,10,12,14,16,-1,18,20,-1,-1,22,24,-1,-1,-1,-1,-1,-1,-1,-1,-1,-1],"split_conditions":[9.829314E0,-7.7913823E0,1.5484077E0,-6.0256977E0,1.5476458E1,-1.571171E0,-4.8537105E-2,-9.286641E1,-1.0303127E-1,3.5225276E-2,2.167549E0,3.4561686E-2,-1.0303127E-1,1.4284444E0,3.4E0,-4.596144E-2,1.0303127E-1,3.8748293E-3,-1.0303127E-1,1.0303127E-1,-1.0303127E-1,-1.0303127E-1,7.633973E-2,-2.217031E-3,8.065052E-2],"split_indices":[97,112,16,86,27,79,106,83,0,66,87,0,0,66,94,0,0,0,0,0,0,0,0,0,0],"split_type":[0,0,0,0,0,0,0,0,0,0,0,0,0,0,0,0,0,0,0,0,0,0,0,0,0],"sum_hessian":[7.339761E2,1.7462764E2,5.5934845E2,2.9995655E1,1.4463199E2,4.0474392E1,5.18874E2,2.1750214E1,8.245441E0,1.3086293E2,1.3769056E1,3.172177E0,3.7302216E1,3.834562E1,4.805284E2,3.1624413E0,1.8587772E1,1.2871646E1,1.1799128E2,9.579409E0,4.189647E0,2.9520258E1,8.825362E0,2.9708685E2,1.8344156E2],"tree_param":{"num_deleted":"0","num_feature":"136","num_nodes":"25","size_leaf_vector":"1"}},{"base_weights":[-1.0966818E-1,-1.0303127E-1,1.8350415E-2,-1E0,9.0361215E-2,-1.0303127E-1,-3.1551372E-3,-6.2315065E-1,2.0463632E-1,2.8920567E-2,-1.0303127E-1,-1.1763072E-3,5.842598E-2],"categories":[],"categories_nodes":[],"categories_segments":[],"categories_sizes":[],"default_left":[0,0,0,0,0,0,0,0,0,0,0,0,0],"id":29,"left_children":[1,-1,3,5,7,-1,-1,9,11,-1,-1,-1,-1],"loss_changes":[8.7440575E1,0E0,5.8376057E1,2.854927E0,4.877606E1,0E0,0E0,4.6990246E1,4.0378365E1,0E0,0E0,0E0,0E0],"parents":[2147483647,0,0,2,2,3,3,4,4,7,7,8,8],"right_children":[2,-1,4,6,8,-1,-1,10,12,-1,-1,-1,-1],"split_conditions":[9.563566E2,-1.0303127E-1,8.2010365E-1,2.4033967E-1,1.3137174E0,-1.0303127E-1,-3.1551372E-3,1.3881141E-1,6.369667E-1,2.8920567E-2,-1.0303127E-1,-1.1763072E-3,5.842598E-2],"split_indices":[103,0,131,58,10,0,0,60,56,0,0,0,0],"split_type":[0,0,0,0,0,0,0,0,0,0,0,0,0],"sum_hessian":[7.1313245E2,8.372125E1,6.294112E2,3.1284002E1,5.981272E2,2.8235687E1,3.048315E0,8.255973E1,5.1556744E2,3.57857E1,4.6774033E1,3.230108E2,1.9255664E2],"tree_param":{"num_deleted":"0","num_feature":"136","num_nodes":"13","size_leaf_vector":"1"}},{"base_weights":[-1.2998322E-1,-6.783412E-1,7.406505E-2,-7.8816986E-1,9.597181E-1,-1.5789683E-1,5.1275516E-1,-1.5226029E-1,-9.5378774E-1,5.0473977E-2,1.0303127E-1,-1E0,2.1285426E-2,-1.7027011E-2,9.205516E-1,-1.0303127E-1,5.7513043E-2,-1.0303002E-1,1.0303127E-1,-1.0303127E-1,5.5821877E-2,-1.0303127E-1,1.15070585E-2,-1.0303127E-1,2.9202972E-2,-1.4035024E-2,1.020618E-1],"categories":[],"categories_nodes":[],"categories_segments":[],"categories_sizes":[],"default_left":[0,0,0,0,0,0,0,0,0,0,0,0,0,0,0,0,0,0,0,0,0,0,0,0,0,0,0],"id":30,"left_children":[1,3,5,7,9,11,13,15,17,-1,-1,19,21,23,25,-1,-1,-1,-1,-1,-1,-1,-1,-1,-1,-1,-1],"loss_changes":[7.771516E1,3.3900284E1,5.1512505E1,1.8587059E1,7.7781296E-1,5.2494827E1,3.7831112E1,2.882506E1,1.3050316E1,0E0,0E0,2.3296642E1,3.6789963E1,3.62001E1,7.329384E0,0E0,0E0,0E0,0E0,0E0,0E0,0E0,0E0,0E0,0E0,0E0,0E0],"parents":[2147483647,0,0,1,1,2,2,3,3,4,4,5,5,6,6,7,7,8,8,11,11,12,12,13,13,14,14],"right_children":[2,4,6,8,10,12,14,16,18,-1,-1,20,22,24,26,-1,-1,-1,-1,-1,-1,-1,-1,-1,-1,-1,-1],"split_conditions":[6.0398444E-3,1.1172476E0,5.6220937E0,-1.5706288E-2,2.3449377E1,7.710819E-2,5.869781E-1,1.5914465E-3,3.337253E0,5.0473977E-2,1.0303127E-1,1.3860943E0,3.868633E-1,2.093288E-1,1.0572455E0,-1.0303127E-1,5.7513043E-2,-1.0303002E-1,1.0303127E-1,-1.0303127E-1,5.5821877E-2,-1.0303127E-1,1.15070585E-2,-1.0303127E-1,2.9202972E-2,-1.4035024E-2,1.020618E-1],"split_indices":[107,99,14,105,41,61,56,100,90,0,0,118,116,76,128,0,0,0,0,0,0,0,0,0,0,0,0],"split_type":[0,0,0,0,0,0,0,0,0,0,0,0,0,0,0,0,0,0,0,0,0,0,0,0,0,0,0],"sum_hessian":[6.944684E2,1.8833643E2,5.06132E2,1.7650928E2,1.1827144E1,3.3107028E2,1.750617E2,3.6481052E1,1.4002823E2,3.1050289E0,8.722115E0,5.5661587E1,2.754087E2,7.614121E1,9.8920494E1,1.3823077E1,2.2657976E1,1.368979E2,3.1303136E0,4.587246E1,9.789127E0,1.3195813E1,2.6221286E2,9.512158E0,6.662905E1,6.1439285E0,9.2776566E1],"tree_param":{"num_deleted":"0","num_feature":"136","num_nodes":"27","size_leaf_vector":"1"}},{"base_weights":[-1.0234441E-1,-1.0303127E-1,8.396685E-3,-2.062736E-1,4.4641978E-1,-1.0303127E-1,-3.4897514E-2,-9.522813E-1,5.799506E-1,-4.4471163E-2,2.926778E-2,-1.0303127E-1,1.0303127E-1,-1.0303127E-1,6.8390675E-2],"categories":[],"categories_nodes":[],"categories_segments":[],"categories_sizes":[],"default_left":[0,0,0,0,0,0,0,0,0,0,0,0,0,0,0],"id":31,"left_children":[1,-1,3,5,7,-1,9,11,13,-1,-1,-1,-1,-1,-1],"loss_changes":[7.315751E1,0E0,5.829048E1,8.2577034E1,3.8090042E1,0E0,4.683162E1,1.9374004E1,2.8921345E1,0E0,0E0,0E0,0E0,0E0,0E0],"parents":[2147483647,0,0,2,2,3,3,4,4,6,6,7,7,8,8],"right_children":[2,-1,4,6,8,-1,10,12,14,-1,-1,-1,-1,-1,-1],"split_conditions":[9.5598047E2,-1.0303127E-1,3.766126E-2,-1.903133E1,9.8434686E2,-1.0303127E-1,1.3592766E-3,9.06125E0,2.659151E-1,-4.4471163E-2,2.926778E-2,-1.0303127E-1,1.0303127E-1,-1.0303127E-1,6.8390675E-2],"split_indices":[75,0,106,85,75,0,100,14,76,0,0,0,0,0,0],"split_type":[0,0,0,0,0,0,0,0,0,0,0,0,0,0,0],"sum_hessian":[6.9140314E2,7.158618E1,6.1981696E2,4.1595572E2,2.0386122E2,4.594372E1,3.70012E2,1.775829E1,1.8610294E2,1.6490875E2,2.0510326E2,1.3096782E1,4.661508E0,7.832422E0,1.7827051E2],"tree_param":{"num_deleted":"0","num_feature":"136","num_nodes":"15","size_leaf_vector":"1"}},{"base_weights":[-1.0051364E-1,-9.805414E-1,2.6630923E-2,2.9954857E-1,-1E0,-1E0,9.492316E-2,-1.0303127E-1,1.0303127E-1,-1.0303127E-1,-5.294518E-2,4.1481294E-2,-1.0303127E-1,-9.382503E-1,1.6867468E-1,4.7710743E-2,-1.0303127E-1,-3.9743915E-2,3.3423334E-2],"categories":[],"categories_nodes":[],"categories_segments":[],"categories_sizes":[],"default_left":[0,0,0,0,0,0,0,0,0,0,0,0,0,0,0,0,0,0,0],"id":32,"left_children":[1,3,5,7,9,11,13,-1,-1,-1,-1,-1,-1,15,17,-1,-1,-1,-1],"loss_changes":[7.4462204E1,1.7728409E1,4.8769337E1,1.5018893E1,7.448883E-1,6.139099E0,4.205382E1,0E0,0E0,0E0,0E0,0E0,0E0,1.8970745E1,4.4474106E1,0E0,0E0,0E0,0E0],"parents":[2147483647,0,0,1,1,2,2,3,3,4,4,5,5,6,6,13,13,14,14],"right_children":[2,4,6,8,10,12,14,-1,-1,-1,-1,-1,-1,16,18,-1,-1,-1,-1],"split_conditions":[1.0776742E1,3.873104E-2,1.6113957E0,1.3293821E0,7.746597E-1,-1.4361855E0,-4.8537105E-2,-1.0303127E-1,1.0303127E-1,-1.0303127E-1,-5.294518E-2,4.1481294E-2,-1.0303127E-1,6.736337E-2,3.465805E-2,4.7710743E-2,-1.0303127E-1,-3.9743915E-2,3.3423334E-2],"split_indices":[33,60,16,133,60,79,106,0,0,0,0,0,0,133,104,0,0,0,0],"split_type":[0,0,0,0,0,0,0,0,0,0,0,0,0,0,0,0,0,0,0],"sum_hessian":[6.653644E2,8.3992096E1,5.813723E2,1.0505414E1,7.348669E1,2.9575018E1,5.5179724E2,4.736137E0,5.769277E0,7.0286736E1,3.1999526E0,3.1095505E0,2.6465467E1,3.6753662E1,5.150436E2,8.916572E0,2.783709E1,1.1293252E2,4.0211108E2],"tree_param":{"num_deleted":"0","num_feature":"136","num_nodes":"19","size_leaf_vector":"1"}},{"base_weights":[-6.8576984E-2,-6.3533676E-1,1.1667254E-1,3.1710505E-1,-8.2426333E-1,-8.4279764E-1,2.2425234E-1,8.2382035E-1,-1.0303127E-1,-1E0,-7.6753516E-3,-1E0,8.0245006E-1,2.7588195E-1,-1E0,-2.7980214E-2,1.0303127E-1,1.0303127E-1,-1.0303127E-1,7.789539E-2,-1.0303127E-1,-1.0303127E-1,2.3861282E-2,1.0303127E-1,5.1137198E-2,-1.0303127E-1,3.3589404E-2,-1.0303127E-1,1.0303127E-1],"categories":[],"categories_nodes":[],"categories_segments":[],"categories_sizes":[],"default_left":[0,0,0,0,0,0,0,0,0,0,0,0,0,0,0,0,0,0,0,0,0,0,0,0,0,0,0,0,0],"id":33,"left_children":[1,3,5,7,9,11,13,15,-1,17,19,21,23,25,27,-1,-1,-1,-1,-1,-1,-1,-1,-1,-1,-1,-1,-1,-1],"loss_changes":[6.9051735E1,2.9159805E1,5.116385E1,2.1404934E1,3.195617E1,1.9555439E1,3.58472E1,5.2524385E0,0E0,1.5693695E1,3.3887123E1,7.157776E0,5.384774E-1,3.791623E1,1.66083E1,0E0,0E0,0E0,0E0,0E0,0E0,0E0,0E0,0E0,0E0,0E0,0E0,0E0,0E0],"parents":[2147483647,0,0,1,1,2,2,3,3,4,4,5,5,6,6,7,7,9,9,10,10,11,11,12,12,13,13,14,14],"right_children":[2,4,6,8,10,12,14,16,-1,18,20,22,24,26,28,-1,-1,-1,-1,-1,-1,-1,-1,-1,-1,-1,-1,-1,-1],"split_conditions":[9.835248E0,-7.7913823E0,1.2170308E0,-1.791162E1,1.00794995E3,2.7101681E0,2.7220223E0,8.139473E-1,-1.0303127E-1,1.2555939E-1,1.0105123E3,9.950261E0,-8.845335E1,2.7981886E-1,3.4722023E1,-2.7980214E-2,1.0303127E-1,1.0303127E-1,-1.0303127E-1,7.789539E-2,-1.0303127E-1,-1.0303127E-1,2.3861282E-2,1.0303127E-1,5.1137198E-2,-1.0303127E-1,3.3589404E-2,-1.0303127E-1,1.0303127E-1],"split_indices":[97,112,110,85,73,90,113,90,0,7,74,26,85,116,41,0,0,0,0,0,0,0,0,0,0,0,0,0,0],"split_type":[0,0,0,0,0,0,0,0,0,0,0,0,0,0,0,0,0,0,0,0,0,0,0,0,0,0,0,0,0],"sum_hessian":[6.575871E2,1.6199046E2,4.9559662E2,2.6808624E1,1.3518184E2,4.9955482E1,4.4564114E2,2.0413439E1,6.395185E0,9.848158E1,3.6700268E1,4.3567955E1,6.387526E0,4.323297E2,1.331142E1,3.6288052E0,1.6784634E1,3.4092638E0,9.507232E1,2.2697302E1,1.4002965E1,3.8859604E1,4.7083507E0,3.2435308E0,3.143995E0,1.0502313E1,4.218274E2,9.2736635E0,4.037757E0],"tree_param":{"num_deleted":"0","num_feature":"136","num_nodes":"29","size_leaf_vector":"1"}},{"base_weights":[-9.8018125E-2,-1.0303127E-1,-4.2816675E-3,-5.4358417E-1,1.19710766E-1,-7.39749E-1,6.112671E-1,-8.551488E-1,2.2388104E-1,-9.6276365E-2,7.450926E-2,1.0303127E-1,-5.631E-2,-1.0303127E-1,-1.23072015E-2,-1.0303127E-1,3.1550556E-2],"categories":[],"categories_nodes":[],"categories_segments":[],"categories_sizes":[],"default_left":[0,0,0,0,0,0,0,0,0,0,0,0,0,0,0,0,0],"id":34,"left_children":[1,-1,3,5,7,9,11,13,15,-1,-1,-1,-1,-1,-1,-1,-1],"loss_changes":[5.6826164E1,0E0,3.8797928E1,2.4579239E1,4.7903294E1,2.6419556E1,9.092058E0,1.7942749E1,4.8055126E1,0E0,0E0,0E0,0E0,0E0,0E0,0E0,0E0],"parents":[2147483647,0,0,2,2,3,3,4,4,5,5,6,6,7,7,8,8],"right_children":[2,-1,4,6,8,10,12,14,16,-1,-1,-1,-1,-1,-1,-1,-1],"split_conditions":[9.563566E2,-1.0303127E-1,9.829314E0,2.7508056E0,4.8715524E-2,1.5644166E-1,2.595733E-1,5.434185E0,-4.712977E-2,-9.6276365E-2,7.450926E-2,1.0303127E-1,-5.631E-2,-1.0303127E-1,-1.23072015E-2,-1.0303127E-1,3.1550556E-2],"split_indices":[103,0,97,1,61,82,77,14,105,0,0,0,0,0,0,0,0],"split_type":[0,0,0,0,0,0,0,0,0,0,0,0,0,0,0,0,0],"sum_hessian":[6.370365E2,5.6970867E1,5.800656E2,1.08435425E2,4.716302E2,9.269698E1,1.5738435E1,4.5521E1,4.261092E2,8.18152E1,1.088179E1,1.0954806E1,4.783629E0,2.1136532E1,2.4384466E1,2.3860754E1,4.0224844E2],"tree_param":{"num_deleted":"0","num_feature":"136","num_nodes":"17","size_leaf_vector":"1"}},{"base_weights":[-9.350911E-2,-9.981383E-1,8.287173E-3,1.0303127E-1,-1E0,-7.120204E-1,1.0359176E-1,-1.0303127E-1,-3.9884046E-2,-1E0,2.3314263E-1,-1E0,1.6431335E-1,-1.0303127E-1,9.440376E-2,1.0303127E-1,-1.0303127E-1,-1.0303127E-1,3.1348765E-2,2.199799E-2,-1.0303127E-1],"categories":[],"categories_nodes":[],"categories_segments":[],"categories_sizes":[],"default_left":[0,0,0,0,0,0,0,0,0,0,0,0,0,0,0,0,0,0,0,0,0],"id":35,"left_children":[1,3,5,-1,7,9,11,-1,-1,13,15,17,19,-1,-1,-1,-1,-1,-1,-1,-1],"loss_changes":[5.689959E1,1.3715378E1,3.8123344E1,0E0,1.1767578E0,3.009895E1,3.859626E1,0E0,0E0,1.5331898E1,3.4472343E1,5.380224E0,3.7078384E1,0E0,0E0,0E0,0E0,0E0,0E0,0E0,0E0],"parents":[2147483647,0,0,1,1,2,2,4,4,5,5,6,6,9,9,10,10,11,11,12,12],"right_children":[2,4,6,-1,8,10,12,-1,-1,14,16,18,20,-1,-1,-1,-1,-1,-1,-1,-1],"split_conditions":[1.1869848E0,-1.7182231E0,1.3137174E0,1.0303127E-1,1.132549E0,1.0027492E3,7.3164517E-1,-1.0303127E-1,-3.9884046E-2,6.9082E0,1.003984E3,8.938956E0,1.011445E3,-1.0303127E-1,9.440376E-2,1.0303127E-1,-1.0303127E-1,-1.0303127E-1,3.1348765E-2,2.199799E-2,-1.0303127E-1],"split_indices":[7,8,10,0,126,103,128,0,0,21,103,32,73,0,0,0,0,0,0,0,0],"split_type":[0,0,0,0,0,0,0,0,0,0,0,0,0,0,0,0,0,0,0,0,0],"sum_hessian":[6.177317E2,6.2478012E1,5.5525366E2,3.0479167E0,5.9430096E1,6.486918E1,4.903845E2,5.6267464E1,3.1626346E0,4.1549625E1,2.331955E1,2.1339125E1,4.6904538E2,3.738567E1,4.1639557E0,1.5193198E1,8.126351E0,1.8187138E1,3.1519866E0,4.569707E2,1.2074687E1],"tree_param":{"num_deleted":"0","num_feature":"136","num_nodes":"21","size_leaf_vector":"1"}},{"base_weights":[-9.113686E-2,-1E0,-1.26274135E-2,2.739601E-2,-1.0303127E-1,-7.4870473E-1,9.2155546E-2,-1E0,9.130512E-2,-1.0303127E-1,1.4579405E-1,-1.0303127E-1,2.3032926E-2,1.0303127E-1,-1.0303127E-1,-1.0303127E-1,2.05313E-2],"categories":[],"categories_nodes":[],"categories_segments":[],"categories_sizes":[],"default_left":[0,0,0,0,0,0,0,0,0,0,0,0,0,0,0,0,0],"id":36,"left_children":[1,3,5,-1,-1,7,9,11,13,-1,15,-1,-1,-1,-1,-1,-1],"loss_changes":[4.932721E1,4.9561195E0,4.338602E1,0E0,0E0,1.6339382E1,3.892424E1,7.0845604E0,2.1101347E1,0E0,3.3579903E1,0E0,0E0,0E0,0E0,0E0,0E0],"parents":[2147483647,0,0,1,1,2,2,5,5,6,6,7,7,8,8,10,10],"right_children":[2,4,6,-1,-1,8,10,12,14,-1,16,-1,-1,-1,-1,-1,-1],"split_conditions":[1.5484077E0,-1.5448976E0,3.2402673E-3,2.739601E-2,-1.0303127E-1,8.440057E-3,2.7981886E-1,1.00759115E1,9.4166666E-1,-1.0303127E-1,7.705037E-4,-1.0303127E-1,2.3032926E-2,1.0303127E-1,-1.0303127E-1,-1.0303127E-1,2.05313E-2],"split_indices":[16,79,107,0,0,80,116,30,108,0,57,0,0,0,0,0,0],"split_type":[0,0,0,0,0,0,0,0,0,0,0,0,0,0,0,0,0],"sum_hessian":[6.0398694E2,4.162611E1,5.6236084E2,3.0820482E0,3.8544064E1,7.007675E1,4.9228412E2,5.2652744E1,1.7424006E1,1.5357767E1,4.7692633E2,4.7931053E1,4.7216907E0,1.0265256E1,7.15875E0,1.8233496E1,4.5869284E2],"tree_param":{"num_deleted":"0","num_feature":"136","num_nodes":"17","size_leaf_vector":"1"}},{"base_weights":[-9.270012E-2,4.757967E-2,-7.029064E-1,-1E0,1.2538554E-1,-1E0,-2.0794432E-1,-1E0,6.183257E-2,-9.300643E-1,2.1667632E-1,-3.5968687E-2,-1.0303127E-1,2.6464117E-1,-1E0,5.25279E-3,-1.0303127E-1,-1.0303127E-1,1.0303127E-1,-3.050523E-2,3.989473E-2,-1.0303127E-1,5.227389E-2,-4.6747196E-2,-1.0303127E-1],"categories":[],"categories_nodes":[],"categories_segments":[],"categories_sizes":[],"default_left":[0,0,0,0,0,0,0,0,0,0,0,0,0,0,0,0,0,0,0,0,0,0,0,0,0],"id":37,"left_children":[1,3,5,7,9,11,13,15,-1,17,19,-1,-1,21,23,-1,-1,-1,-1,-1,-1,-1,-1,-1,-1],"loss_changes":[5.043811E1,4.0885227E1,2.020023E1,1.4696716E1,4.3111492E1,1.2994232E0,2.2531956E1,3.489315E0,0E0,3.2208263E1,3.600982E1,0E0,0E0,1.2816032E1,9.821186E-1,0E0,0E0,0E0,0E0,0E0,0E0,0E0,0E0,0E0,0E0],"parents":[2147483647,0,0,1,1,2,2,3,3,4,4,5,5,6,6,7,7,9,9,10,10,13,13,14,14],"right_children":[2,4,6,8,10,12,14,16,-1,18,20,-1,-1,22,24,-1,-1,-1,-1,-1,-1,-1,-1,-1,-1],"split_conditions":[4.6113113E1,-4.974732E1,1.2373162E-2,1.4222623E-1,5.1665353E-3,3.73468E-3,2E-1,-9.356379E-3,6.183257E-2,4.4097096E-2,8.438568E-2,-3.5968687E-2,-1.0303127E-1,-1.33795E-2,-2.2420962E-1,5.25279E-3,-1.0303127E-1,-1.0303127E-1,1.0303127E-1,-3.050523E-2,3.989473E-2,-1.0303127E-1,5.227389E-2,-4.6747196E-2,-1.0303127E-1],"split_indices":[86,86,107,106,98,58,94,62,0,57,61,0,0,106,29,0,0,0,0,0,0,0,0,0,0],"split_type":[0,0,0,0,0,0,0,0,0,0,0,0,0,0,0,0,0,0,0,0,0,0,0,0,0],"sum_hessian":[5.891135E2,4.7899774E2,1.1011578E2,3.1655922E1,4.4734183E2,6.2410122E1,4.770566E1,2.5927212E1,5.7287107E0,3.560184E1,4.1174E2,3.0934913E0,5.931663E1,3.2789825E1,1.4915834E1,3.14931E0,2.2777903E1,2.7738981E1,7.8628583E0,1.0275288E2,3.0898712E2,4.068781E0,2.8721046E1,3.3289607E0,1.1586874E1],"tree_param":{"num_deleted":"0","num_feature":"136","num_nodes":"25","size_leaf_vector":"1"}},{"base_weights":[-9.774889E-2,-1E0,-2.5256125E-2,2.1231756E-2,-1.0303127E-1,-9.789041E-1,4.4218123E-2,-1E0,3.1395522E-1,-4.6654996E-1,1.6891748E-1,-1.0303127E-1,-1.4101493E-2,1.0303127E-1,-6.479478E-2,-7.696431E-2,3.1145353E-2,2.430868E-2,-1.0303127E-1],"categories":[],"categories_nodes":[],"categories_segments":[],"categories_sizes":[],"default_left":[0,0,0,0,0,0,0,0,0,0,0,0,0,0,0,0,0,0,0],"id":38,"left_children":[1,3,5,-1,-1,7,9,11,13,15,17,-1,-1,-1,-1,-1,-1,-1,-1],"loss_changes":[4.3390747E1,4.4567604E0,3.5886627E1,0E0,0E0,1.1789932E1,3.214905E1,2.2744026E0,5.0305233E0,2.136231E1,3.77225E1,0E0,0E0,0E0,0E0,0E0,0E0,0E0,0E0],"parents":[2147483647,0,0,1,1,2,2,5,5,6,6,7,7,8,8,9,9,10,10],"right_children":[2,4,6,-1,-1,8,10,12,14,16,18,-1,-1,-1,-1,-1,-1,-1,-1],"split_conditions":[1.5484077E0,-1.5127547E0,4.7031328E-2,2.1231756E-2,-1.0303127E-1,1.0621111E0,9.829314E0,1.1785772E1,-3.7555993E-2,7.5209683E-1,1.0290949E1,-1.0303127E-1,-1.4101493E-2,1.0303127E-1,-6.479478E-2,-7.696431E-2,3.1145353E-2,2.430868E-2,-1.0303127E-1],"split_indices":[16,79,124,0,0,123,97,13,49,18,34,0,0,0,0,0,0,0,0],"split_type":[0,0,0,0,0,0,0,0,0,0,0,0,0,0,0,0,0,0,0],"sum_hessian":[5.786196E2,3.7187534E1,5.4143207E2,3.0534E0,3.4134132E1,3.6762123E1,5.0466995E2,2.9934687E1,6.8274355E0,9.902054E1,4.056494E2,2.6867975E1,3.0667114E0,3.732433E0,3.0950024E0,7.255938E1,2.6461159E1,3.8754965E2,1.8099771E1],"tree_param":{"num_deleted":"0","num_feature":"136","num_nodes":"19","size_leaf_vector":"1"}},{"base_weights":[-7.941227E-2,-1E0,-1.3126907E-2,-1.0303127E-1,-7.5389147E-3,-1.0303127E-1,3.7496302E-2,-1.4775872E-1,3.58953E-1,3.5719838E-2,-5.141899E-2,5.2384734E-2,-1.0303127E-1],"categories":[],"categories_nodes":[],"categories_segments":[],"categories_sizes":[],"default_left":[0,0,0,0,0,0,0,0,0,0,0,0,0],"id":39,"left_children":[1,3,5,-1,-1,-1,7,9,11,-1,-1,-1,-1],"loss_changes":[3.940257E1,3.3951378E0,3.5255703E1,0E0,0E0,0E0,3.1034E1,5.74236E1,3.989061E1,0E0,0E0,0E0,0E0],"parents":[2147483647,0,0,1,1,2,2,6,6,7,7,8,8],"right_children":[2,4,6,-1,-1,-1,8,10,12,-1,-1,-1,-1],"split_conditions":[1.5484077E0,7.682332E-1,2.7981886E-1,-1.0303127E-1,-7.5389147E-3,-1.0303127E-1,1.000684E1,-3.448985E-1,1.0290949E1,3.5719838E-2,-5.141899E-2,5.2384734E-2,-1.0303127E-1],"split_indices":[16,89,116,0,0,0,97,78,34,0,0,0,0],"split_type":[0,0,0,0,0,0,0,0,0,0,0,0,0],"sum_hessian":[5.736666E2,3.400857E1,5.396581E2,3.004471E1,3.9638636E0,1.8635603E1,5.2102246E2,3.3052927E2,1.904932E2,1.3728789E2,1.932414E2,1.7214214E2,1.8351072E1],"tree_param":{"num_deleted":"0","num_feature":"136","num_nodes":"13","size_leaf_vector":"1"}},{"base_weights":[-1.2196852E-1,-1E0,-4.7144983E-2,-3.2744452E-2,-1E0,1.969952E-1,-3.4139338E-1,-1.0303127E-1,-8.7154135E-2,-1E0,2.9019573E-1,-7.6953284E-2,-9.325263E-1,2.820889E-2,-1.0303127E-1,3.7088253E-2,-1.0303127E-1,1.601662E-2,-7.952308E-2,-1.0303127E-1,3.828319E-2],"categories":[],"categories_nodes":[],"categories_segments":[],"categories_sizes":[],"default_left":[0,0,0,0,0,0,0,0,0,0,0,0,0,0,0,0,0,0,0,0,0],"id":40,"left_children":[1,3,5,-1,7,9,11,-1,-1,13,15,17,19,-1,-1,-1,-1,-1,-1,-1,-1],"loss_changes":[4.230361E1,2.4565926E0,3.6776154E1,0E0,6.468582E-2,3.5571426E1,3.6285454E1,0E0,0E0,5.855448E0,3.2987267E1,2.5914175E1,2.2436455E1,0E0,0E0,0E0,0E0,0E0,0E0,0E0,0E0],"parents":[2147483647,0,0,1,1,2,2,4,4,5,5,6,6,9,9,10,10,11,11,12,12],"right_children":[2,4,6,-1,8,10,12,-1,-1,14,16,18,20,-1,-1,-1,-1,-1,-1,-1,-1],"split_conditions":[4.955032E-2,-1.2896973E0,1.278238E-1,-3.2744452E-2,1.0538604E0,6.752968E-3,3.7261307E-1,-1.0303127E-1,-8.7154135E-2,1.8348223E-2,1.0122021E3,2.2573507E-1,6.4603534E0,2.820889E-2,-1.0303127E-1,3.7088253E-2,-1.0303127E-1,1.601662E-2,-7.952308E-2,-1.0303127E-1,3.828319E-2],"split_indices":[125,79,4,0,90,98,68,0,0,72,103,85,5,0,0,0,0,0,0,0,0],"split_type":[0,0,0,0,0,0,0,0,0,0,0,0,0,0,0,0,0,0,0,0,0],"sum_hessian":[5.4791174E2,3.6069096E1,5.1184265E2,5.30249E0,3.0766605E1,2.7973306E2,2.3210957E2,2.7616488E1,3.1501176E0,1.7581848E1,2.621512E2,1.6038164E2,7.172793E1,3.5981045E0,1.3983743E1,2.5378041E2,8.3708105E0,1.2018518E2,4.0196457E1,5.9638935E1,1.2088995E1],"tree_param":{"num_deleted":"0","num_feature":"136","num_nodes":"21","size_leaf_vector":"1"}},{"base_weights":[-6.93964E-2,-1.0303127E-1,-9.120741E-3,-1E0,5.213262E-2,-1.0303127E-1,1.0303127E-1,-9.211726E-1,1.2129445E-1,-1.0303127E-1,3.5321172E-2,-4.032788E-2,2.4212008E-2],"categories":[],"categories_nodes":[],"categories_segments":[],"categories_sizes":[],"default_left":[0,0,0,0,0,0,0,0,0,0,0,0,0],"id":41,"left_children":[1,-1,3,5,7,-1,-1,9,11,-1,-1,-1,-1],"loss_changes":[3.7514793E1,0E0,3.8336983E1,1.7647434E1,3.3891705E1,0E0,0E0,1.1944363E1,2.7403648E1,0E0,0E0,0E0,0E0],"parents":[2147483647,0,0,2,2,3,3,4,4,7,7,8,8],"right_children":[2,-1,4,6,8,-1,-1,10,12,-1,-1,-1,-1],"split_conditions":[1.4540724E0,-1.0303127E-1,-4.4770937E0,2.3934084E-1,5.499998E-2,-1.0303127E-1,1.0303127E-1,1.0621111E0,9.829314E0,-1.0303127E-1,3.5321172E-2,-4.032788E-2,2.4212008E-2],"split_indices":[16,0,12,82,125,0,0,123,97,0,0,0,0],"split_type":[0,0,0,0,0,0,0,0,0,0,0,0,0],"sum_hessian":[5.55843E2,2.7350399E1,5.284926E2,2.51228E1,5.033698E2,2.0862183E1,4.260619E0,3.338402E1,4.6998578E2,2.6656137E1,6.7278852E0,8.52976E1,3.846882E2],"tree_param":{"num_deleted":"0","num_feature":"136","num_nodes":"13","size_leaf_vector":"1"}},{"base_weights":[-8.9806974E-2,5.26459E-2,-6.5197563E-1,-1E0,1.1371493E-1,-8.6706257E-1,4.930355E-1,-1.0303127E-1,5.262037E-2,-1.0303127E-1,1.5197577E-1,4.0537193E-1,-9.9656445E-1,-1.0303127E-1,8.1953764E-1,1.0303127E-1,7.611522E-3,-4.9577456E-2,9.972214E-2,-1.0303127E-1,4.1366643E-3,1.0303127E-1,-0E0],"categories":[],"categories_nodes":[],"categories_segments":[],"categories_sizes":[],"default_left":[0,0,0,0,0,0,0,0,0,0,0,0,0,0,0,0,0,0,0,0,0,0,0],"id":42,"left_children":[1,3,5,7,9,11,13,-1,-1,-1,15,17,19,-1,21,-1,-1,-1,-1,-1,-1,-1,-1],"loss_changes":[4.3043488E1,3.045921E1,2.6769825E1,1.1090326E1,2.9138443E1,1.508461E1,8.436244E0,0E0,0E0,0E0,3.300206E1,4.2314944E0,1.613601E1,0E0,2.6005611E0,0E0,0E0,0E0,0E0,0E0,0E0,0E0,0E0],"parents":[2147483647,0,0,1,1,2,2,3,3,4,4,5,5,6,6,10,10,11,11,12,12,14,14],"right_children":[2,4,6,8,10,12,14,-1,-1,-1,16,18,20,-1,22,-1,-1,-1,-1,-1,-1,-1,-1],"split_conditions":[1.899848E1,-6.5787155E1,7.4131954E-1,1.0761046E0,9.5676514E2,-1.5209875E0,3.8344553E-1,-1.0303127E-1,5.262037E-2,-1.0303127E-1,9.5750037E2,1.4055054E-1,7.5513496E0,-1.0303127E-1,2.5049017E-3,1.0303127E-1,7.611522E-3,-4.9577456E-2,9.972214E-2,-1.0303127E-1,4.1366643E-3,1.0303127E-1,-0E0],"split_indices":[86,86,60,8,73,78,76,0,0,0,71,100,14,0,134,0,0,0,0,0,0,0,0],"split_type":[0,0,0,0,0,0,0,0,0,0,0,0,0,0,0,0,0,0,0,0,0,0,0],"sum_hessian":[5.3737024E2,4.287303E2,1.0863996E2,2.1166105E1,4.0756418E2,9.146479E1,1.717517E1,1.6317944E1,4.8481627E0,4.6602626E0,4.0290393E2,8.443862E0,8.302093E1,3.063848E0,1.4111323E1,2.6601496E1,3.7630243E2,3.275088E0,5.1687746E0,6.81153E1,1.4905622E1,1.1058866E1,3.0524583E0],"tree_param":{"num_deleted":"0","num_feature":"136","num_nodes":"23","size_leaf_vector":"1"}},{"base_weights":[-5.264151E-2,-1E0,1.3968775E-3,-1.0303127E-1,9.880674E-2,-1.0303127E-1,5.09603E-2,-1.0303127E-1,9.323641E-2,1.6020853E-2,-9.338709E-2],"categories":[],"categories_nodes":[],"categories_segments":[],"categories_sizes":[],"default_left":[0,0,0,0,0,0,0,0,0,0,0],"id":43,"left_children":[1,3,5,-1,-1,-1,7,-1,9,-1,-1],"loss_changes":[3.2979965E1,1.5428814E1,3.2576065E1,0E0,0E0,0E0,3.0041813E1,0E0,2.9962532E1,0E0,0E0],"parents":[2147483647,0,0,1,1,2,2,6,6,8,8],"right_children":[2,4,6,-1,-1,-1,8,-1,10,-1,-1],"split_conditions":[-4.4770937E0,2.2191817E-1,2.7981886E-1,-1.0303127E-1,9.880674E-2,-1.0303127E-1,-9.286641E1,-1.0303127E-1,1.1124473E0,1.6020853E-2,-9.338709E-2],"split_indices":[12,80,116,0,0,0,83,0,78,0,0],"split_type":[0,0,0,0,0,0,0,0,0,0,0],"sum_hessian":[5.344387E2,2.324567E1,5.1119305E2,1.9236637E1,4.009034E0,1.7578629E1,4.9361444E2,1.2296033E1,4.813184E2,4.5311014E2,2.8208252E1],"tree_param":{"num_deleted":"0","num_feature":"136","num_nodes":"11","size_leaf_vector":"1"}},{"base_weights":[-4.4352084E-2,-2.1796496E-1,3.5117674E-1,-1.0303127E-1,-8.179226E-2,-9.438307E-1,5.5451417E-1,2.853883E-2,-1E0,-1E0,1.8578054E-1,-9.94551E-2,8.2077485E-1,2.3943938E-2,-5.9074182E-2,-1.0303127E-1,7.222964E-2,-1.0303127E-1,4.5810148E-2,-5.3706154E-2,9.244954E-2,4.747959E-2,-1.0303127E-1,-1.7832553E-2,8.994435E-2],"categories":[],"categories_nodes":[],"categories_segments":[],"categories_sizes":[],"default_left":[0,0,0,0,0,0,0,0,0,0,0,0,0,0,0,0,0,0,0,0,0,0,0,0,0],"id":44,"left_children":[1,3,5,-1,7,9,11,13,15,17,19,21,23,-1,-1,-1,-1,-1,-1,-1,-1,-1,-1,-1,-1],"loss_changes":[3.6891205E1,5.8623627E1,4.3159763E1,0E0,3.990908E1,8.572823E0,2.4668167E1,3.7916576E1,2.2289742E1,6.3899155E0,3.1087384E0,3.6150772E1,5.2291107E0,0E0,0E0,0E0,0E0,0E0,0E0,0E0,0E0,0E0,0E0,0E0,0E0],"parents":[2147483647,0,0,1,1,2,2,4,4,5,5,6,6,7,7,8,8,9,9,10,10,11,11,12,12],"right_children":[2,4,6,-1,8,10,12,14,16,18,20,22,24,-1,-1,-1,-1,-1,-1,-1,-1,-1,-1,-1,-1],"split_conditions":[3.9468862E-2,-1.903133E1,9.860971E2,-1.0303127E-1,2.4735558E-1,4.621083E0,1.150479E-1,5.038313E0,7.414489E-1,3.6223105E-1,1.0094383E1,5.754801E-2,1.5062613E0,2.3943938E-2,-5.9074182E-2,-1.0303127E-1,7.222964E-2,-1.0303127E-1,4.5810148E-2,-5.3706154E-2,9.244954E-2,4.747959E-2,-1.0303127E-1,-1.7832553E-2,8.994435E-2],"split_indices":[106,85,73,0,81,29,81,85,56,61,30,98,14,0,0,0,0,0,0,0,0,0,0,0,0],"split_type":[0,0,0,0,0,0,0,0,0,0,0,0,0,0,0,0,0,0,0,0,0,0,0,0,0],"sum_hessian":[5.371522E2,3.7330847E2,1.6384377E2,3.2972305E1,3.4033618E2,2.2227415E1,1.4161635E2,3.089514E2,3.138478E1,1.6091316E1,6.136099E0,4.0972042E1,1.006443E2,2.3079669E2,7.815471E1,2.3692833E1,7.691947E0,1.3040525E1,3.0507905E0,3.0756419E0,3.0604572E0,3.249906E1,8.472982E0,5.01743E0,9.562688E1],"tree_param":{"num_deleted":"0","num_feature":"136","num_nodes":"25","size_leaf_vector":"1"}},{"base_weights":[-6.989167E-2,-1.0303127E-1,-1.313383E-2,-8.055879E-1,5.282819E-2,8.523295E-1,-1E0,-1.0303127E-1,8.874774E-2,5.3051308E-2,1.0303127E-1,1.0303127E-1,-1.0303127E-1,-1.0303127E-1,1.406533E-2],"categories":[],"categories_nodes":[],"categories_segments":[],"categories_sizes":[],"default_left":[0,0,0,0,0,0,0,0,0,0,0,0,0,0,0],"id":45,"left_children":[1,-1,3,5,7,9,11,-1,13,-1,-1,-1,-1,-1,-1],"loss_changes":[2.858884E1,0E0,2.5466534E1,2.0516523E1,2.2111115E1,5.736394E-1,2.0356316E1,0E0,2.3105019E1,0E0,0E0,0E0,0E0,0E0,0E0],"parents":[2147483647,0,0,2,2,3,3,4,4,5,5,6,6,8,8],"right_children":[2,-1,4,6,8,10,12,-1,14,-1,-1,-1,-1,-1,-1],"split_conditions":[9.5551373E2,-1.0303127E-1,5.1665353E-3,9.569807E2,-1.06891174E2,5.6362073E-3,-9.19332E-1,-1.0303127E-1,7.3164517E-1,5.3051308E-2,1.0303127E-1,1.0303127E-1,-1.0303127E-1,-1.0303127E-1,1.406533E-2],"split_indices":[73,0,98,74,85,100,50,0,128,0,0,0,0,0,0],"split_type":[0,0,0,0,0,0,0,0,0,0,0,0,0,0,0],"sum_hessian":[5.151487E2,2.8188168E1,4.869605E2,3.741655E1,4.4954395E2,6.3799477E0,3.1036602E1,1.0513096E1,4.3903085E2,3.0720115E0,3.3079364E0,3.8479557E0,2.7188646E1,1.8235573E1,4.207953E2],"tree_param":{"num_deleted":"0","num_feature":"136","num_nodes":"15","size_leaf_vector":"1"}},{"base_weights":[-6.1628774E-2,-1E0,-8.778829E-3,-1.0303127E-1,1.0142917E-1,-1.0303127E-1,4.7142398E-2,-1E0,9.818159E-2,6.425075E-2,-1.0303127E-1,1.3750023E-2,-1.0303127E-1],"categories":[],"categories_nodes":[],"categories_segments":[],"categories_sizes":[],"default_left":[0,0,0,0,0,0,0,0,0,0,0,0,0],"id":46,"left_children":[1,3,5,-1,-1,-1,7,9,11,-1,-1,-1,-1],"loss_changes":[3.102737E1,1.3552074E1,3.2143883E1,0E0,0E0,0E0,2.5845978E1,8.063236E0,2.477082E1,0E0,0E0,0E0,0E0],"parents":[2147483647,0,0,1,1,2,2,6,6,7,7,8,8],"right_children":[2,4,6,-1,-1,-1,8,10,12,-1,-1,-1,-1],"split_conditions":[-4.4770937E0,2.3934084E-1,1.4540724E0,-1.0303127E-1,1.0142917E-1,-1.0303127E-1,4.4997543E-2,-7.190373E-1,1.6819538E0,6.425075E-2,-1.0303127E-1,1.3750023E-2,-1.0303127E-1],"split_indices":[12,82,16,0,0,0,125,9,78,0,0,0,0],"split_type":[0,0,0,0,0,0,0,0,0,0,0,0,0],"sum_hessian":[5.106218E2,2.1411053E1,4.8921075E2,1.7981052E1,3.43E0,2.155138E1,4.6765936E2,2.1022522E1,4.4663684E2,3.0475366E0,1.7974985E1,4.3855783E2,8.079018E0],"tree_param":{"num_deleted":"0","num_feature":"136","num_nodes":"13","size_leaf_vector":"1"}},{"base_weights":[-1.0871405E-1,-1.0303127E-1,-5.3297415E-2,-1E0,-2.14048E-3,9.4233096E-2,-1.0303127E-1,-1.8152109E-1,3.3657593E-1,2.6052872E-2,-5.0402585E-2,4.906431E-2,-1.0044642E-1],"categories":[],"categories_nodes":[],"categories_segments":[],"categories_sizes":[],"default_left":[0,0,0,0,0,0,0,0,0,0,0,0,0],"id":47,"left_children":[1,-1,3,5,7,-1,-1,9,11,-1,-1,-1,-1],"loss_changes":[2.966446E1,0E0,2.7829659E1,1.192869E1,2.7419157E1,0E0,0E0,3.9433548E1,2.8618793E1,0E0,0E0,0E0,0E0],"parents":[2147483647,0,0,2,2,3,3,4,4,7,7,8,8],"right_children":[2,-1,4,6,8,-1,-1,10,12,-1,-1,-1,-1],"split_conditions":[1.5484077E0,-1.0303127E-1,-4.4770937E0,-2.0348341E0,1.000684E1,9.4233096E-2,-1.0303127E-1,-3.448985E-1,1.0290949E1,2.6052872E-2,-5.0402585E-2,4.906431E-2,-1.0044642E-1],"split_indices":[16,0,12,89,97,0,0,78,34,0,0,0,0],"split_type":[0,0,0,0,0,0,0,0,0,0,0,0,0],"sum_hessian":[4.931461E2,2.2936228E1,4.7020987E2,1.9018644E1,4.5119122E2,3.2427957E0,1.5775848E1,2.9498706E2,1.5620416E2,1.2230299E2,1.7268407E2,1.4118195E2,1.5022206E1],"tree_param":{"num_deleted":"0","num_feature":"136","num_nodes":"13","size_leaf_vector":"1"}},{"base_weights":[-7.225787E-2,-1E0,-1.5672741E-2,-1E0,3.0968746E-2,-1.8199189E-1,3.0233383E-1,-5.889469E-2,-1.0303127E-1,-6.0556125E-2,-9.041313E-1,-8.8899815E-1,5.197276E-1,-1.0303127E-1,8.0544536E-4,1.1466743E-2,-1.0303127E-1,-1.0303127E-1,5.967535E-2,-1.0303127E-1,6.941528E-2],"categories":[],"categories_nodes":[],"categories_segments":[],"categories_sizes":[],"default_left":[0,0,0,0,0,0,0,0,0,0,0,0,0,0,0,0,0,0,0,0,0],"id":48,"left_children":[1,3,5,7,-1,9,11,-1,-1,13,15,17,19,-1,-1,-1,-1,-1,-1,-1,-1],"loss_changes":[2.5877264E1,8.034836E0,2.4177832E1,5.886154E-1,0E0,2.6320148E1,4.065976E1,0E0,0E0,2.0539059E1,1.3003281E1,1.2393225E1,3.6728355E1,0E0,0E0,0E0,0E0,0E0,0E0,0E0,0E0],"parents":[2147483647,0,0,1,1,2,2,3,3,5,5,6,6,9,9,10,10,11,11,12,12],"right_children":[2,4,6,8,-1,10,12,-1,-1,14,16,18,20,-1,-1,-1,-1,-1,-1,-1,-1],"split_conditions":[4.955032E-2,1.0621111E0,3.4E0,-1.2896973E0,3.0968746E-2,1.0814903E0,-5.17671E-2,-5.889469E-2,-1.0303127E-1,1.5484077E0,6E-1,1.5032501E0,9.825094E0,-1.0303127E-1,8.0544536E-4,1.1466743E-2,-1.0303127E-1,-1.0303127E-1,5.967535E-2,-1.0303127E-1,6.941528E-2],"split_indices":[125,123,94,79,0,79,105,0,0,16,95,66,97,0,0,0,0,0,0,0,0],"split_type":[0,0,0,0,0,0,0,0,0,0,0,0,0,0,0,0,0,0,0,0,0],"sum_hessian":[4.8441632E2,2.7376976E1,4.5703937E2,2.263763E1,4.7393456E0,3.0010254E2,1.5693683E2,3.2688446E0,1.9368788E1,2.5691544E2,4.3187103E1,2.4210865E1,1.3272597E2,1.3466023E1,2.434494E2,1.0839886E1,3.2347218E1,1.9133343E1,5.0775213E0,1.0189032E1,1.2253693E2],"tree_param":{"num_deleted":"0","num_feature":"136","num_nodes":"21","size_leaf_vector":"1"}},{"base_weights":[-5.868922E-2,-1.0303127E-1,-7.3013E-3,-1E0,4.1884128E-2,-1.0303127E-1,-1.9421708E-2,-9.5687383E-1,9.36518E-2,-1.0303127E-1,9.551586E-2,1.2957235E-2,-1.0303127E-1],"categories":[],"categories_nodes":[],"categories_segments":[],"categories_sizes":[],"default_left":[0,0,0,0,0,0,0,0,0,0,0,0,0],"id":49,"left_children":[1,-1,3,5,7,-1,-1,9,11,-1,-1,-1,-1],"loss_changes":[2.8213276E1,0E0,2.7929667E1,1.9923668E0,2.3228945E1,0E0,0E0,1.4431236E1,2.0998652E1,0E0,0E0,0E0,0E0],"parents":[2147483647,0,0,2,2,3,3,4,4,7,7,8,8],"right_children":[2,-1,4,6,8,-1,-1,10,12,-1,-1,-1,-1],"split_conditions":[1.5484077E0,-1.0303127E-1,-4.4770937E0,1.777422E-1,8.1214607E-1,-1.0303127E-1,-1.9421708E-2,2.118289E0,1.6819538E0,-1.0303127E-1,9.551586E-2,1.2957235E-2,-1.0303127E-1],"split_indices":[16,0,12,105,131,0,0,11,78,0,0,0,0],"split_type":[0,0,0,0,0,0,0,0,0,0,0,0,0],"sum_hessian":[4.8689008E2,2.046543E1,4.6642465E2,1.7279434E1,4.491452E2,1.4237872E1,3.0415614E0,2.2120832E1,4.2702438E2,1.8235079E1,3.8857534E0,4.1958838E2,7.436004E0],"tree_param":{"num_deleted":"0","num_feature":"136","num_nodes":"13","size_leaf_vector":"1"}},{"base_weights":[-3.9115954E-2,-1E0,9.194607E-3,2.4741802E-2,-1.0303127E-1,-1E0,5.3501368E-2,9.134378E-2,-1.0303127E-1,-3.5085255E-1,1.8537314E-1,9.528037E-2,-5.7555865E-2,-7.29501E-2,2.861903E-2],"categories":[],"categories_nodes":[],"categories_segments":[],"categories_sizes":[],"default_left":[0,0,0,0,0,0,0,0,0,0,0,0,0,0,0],"id":50,"left_children":[1,3,5,-1,-1,7,9,-1,-1,11,13,-1,-1,-1,-1],"loss_changes":[2.4690948E1,4.69125E0,2.3365936E1,0E0,0E0,1.0970875E1,2.3820065E1,0E0,0E0,2.9123558E1,2.7810349E1,0E0,0E0,0E0,0E0],"parents":[2147483647,0,0,1,1,2,2,5,5,6,6,9,9,10,10],"right_children":[2,4,6,-1,-1,8,10,-1,-1,12,14,-1,-1,-1,-1],"split_conditions":[8.1214607E-1,-4.007665E-1,-4.4770937E0,2.4741802E-2,-1.0303127E-1,-2.0348341E0,8.160741E-2,9.134378E-2,-1.0303127E-1,4.8122302E-1,1.7697252E-2,9.528037E-2,-5.7555865E-2,-7.29501E-2,2.861903E-2],"split_indices":[131,29,12,0,0,89,61,0,0,6,104,0,0,0,0],"split_type":[0,0,0,0,0,0,0,0,0,0,0,0,0,0,0],"sum_hessian":[4.848255E2,2.107357E1,4.6375192E2,3.0397286E0,1.8033842E1,1.7127594E1,4.4662433E2,3.0711405E0,1.4056454E1,1.0982418E2,3.3680014E2,1.5375144E1,9.4449036E1,3.1557096E1,3.0524304E2],"tree_param":{"num_deleted":"0","num_feature":"136","num_nodes":"15","size_leaf_vector":"1"}},{"base_weights":[-4.776487E-2,5.791822E-2,-4.9895757E-1,-1.9851169E-1,3.0136356E-1,-1E0,-5.764497E-2,8.271649E-3,-1E0,-1.0303127E-1,3.7308213E-1,-1.0303127E-1,3.768353E-2,2.655846E-1,-1E0,-5.2889537E-2,5.9207294E-2,-1.0303127E-1,2.9028747E-2,-1.0303127E-1,4.487003E-2,4.8952688E-2,-1.0303127E-1,-7.2832264E-2,-1.0303127E-1],"categories":[],"categories_nodes":[],"categories_segments":[],"categories_sizes":[],"default_left":[0,0,0,0,0,0,0,0,0,0,0,0,0,0,0,0,0,0,0,0,0,0,0,0,0],"id":51,"left_children":[1,3,5,7,9,11,13,15,17,-1,19,-1,-1,21,23,-1,-1,-1,-1,-1,-1,-1,-1,-1,-1],"loss_changes":[2.2541353E1,2.3907997E1,2.0807373E1,4.1987682E1,2.940882E1,7.152794E0,1.940143E1,4.702217E1,8.543053E0,0E0,1.9131577E1,0E0,0E0,1.397652E1,2.5094223E-1,0E0,0E0,0E0,0E0,0E0,0E0,0E0,0E0,0E0,0E0],"parents":[2147483647,0,0,1,1,2,2,3,3,4,4,5,5,6,6,7,7,8,8,10,10,13,13,14,14],"right_children":[2,4,6,8,10,12,14,16,18,-1,20,-1,-1,22,24,-1,-1,-1,-1,-1,-1,-1,-1,-1,-1],"split_conditions":[7.121521E0,-2.1535034E0,1.1199756E-2,3.5480926E0,9.571637E2,7.912845E-1,1.9257404E-1,3.9468862E-2,-5.3656397E0,-1.0303127E-1,1.867681E-1,-1.0303127E-1,3.768353E-2,1.511525E-1,5.2555114E-1,-5.2889537E-2,5.9207294E-2,-1.0303127E-1,2.9028747E-2,-1.0303127E-1,4.487003E-2,4.8952688E-2,-1.0303127E-1,-7.2832264E-2,-1.0303127E-1],"split_indices":[85,86,107,6,103,60,133,106,83,0,66,0,0,98,51,0,0,0,0,0,0,0,0,0,0],"split_type":[0,0,0,0,0,0,0,0,0,0,0,0,0,0,0,0,0,0,0,0,0,0,0,0,0],"sum_hessian":[4.7257254E2,3.8288635E2,8.96862E1,1.864618E2,1.9642453E2,4.0893147E1,4.879306E1,1.5911328E2,2.734854E1,4.381322E0,1.9204321E2,3.7069355E1,3.823791E0,3.9154102E1,9.638957E0,8.2826904E1,7.628637E1,2.2159212E1,5.189326E0,7.049924E0,1.8499329E2,3.524445E1,3.9096537E0,3.0472908E0,6.591666E0],"tree_param":{"num_deleted":"0","num_feature":"136","num_nodes":"25","size_leaf_vector":"1"}},{"base_weights":[-5.1408947E-2,1.608576E-2,-7.777478E-1,-1.3235979E-1,3.4920964E-1,-1E0,5.479324E-1,-4.1366424E-2,-9.7888273E-1,-2.1512663E-1,8.105904E-1,-1.0303127E-1,-4.8008475E-2,-1.4577611E-2,1.0303127E-1,4.9387414E-2,-1.9925168E-2,-1.0303127E-1,5.034215E-2,5.4491982E-2,-9.0385586E-2,-1.0303127E-1,9.3392655E-2],"categories":[],"categories_nodes":[],"categories_segments":[],"categories_sizes":[],"default_left":[0,0,0,0,0,0,0,0,0,0,0,0,0,0,0,0,0,0,0,0,0,0,0],"id":52,"left_children":[1,3,5,7,9,11,13,15,17,19,21,-1,-1,-1,-1,-1,-1,-1,-1,-1,-1,-1,-1],"loss_changes":[2.2706873E1,2.0953241E1,1.6611118E1,2.2574095E1,3.4012657E1,8.778E-1,2.8835747E0,2.0950846E1,1.0507601E1,2.8956064E1,1.249408E1,0E0,0E0,0E0,0E0,0E0,0E0,0E0,0E0,0E0,0E0,0E0,0E0],"parents":[2147483647,0,0,1,1,2,2,3,3,4,4,5,5,6,6,7,7,8,8,9,9,10,10],"right_children":[2,4,6,8,10,12,14,16,18,20,22,-1,-1,-1,-1,-1,-1,-1,-1,-1,-1,-1,-1],"split_conditions":[6.2625945E-2,3.4E0,1.4746267E-1,6.7E1,2.7629247E-2,7.7933466E-1,8.8629377E-1,-1.08228205E-2,1.1101464E-2,1.265292E-1,9.824212E0,-1.0303127E-1,-4.8008475E-2,-1.4577611E-2,1.0303127E-1,4.9387414E-2,-1.9925168E-2,-1.0303127E-1,5.034215E-2,5.4491982E-2,-9.0385586E-2,-1.0303127E-1,9.3392655E-2],"split_indices":[57,94,105,65,100,28,102,105,134,89,97,0,0,0,0,0,0,0,0,0,0,0,0],"split_type":[0,0,0,0,0,0,0,0,0,0,0,0,0,0,0,0,0,0,0,0,0,0,0],"sum_hessian":[4.6295422E2,4.235942E2,3.9359997E1,2.930138E2,1.3058041E2,3.1627872E1,7.7321258E0,2.6458786E2,2.842592E1,5.873436E1,7.184606E1,2.8510305E1,3.1175675E0,3.4137225E0,4.3184032E0,5.9779858E1,2.0480801E2,2.3689632E1,4.7362876E0,2.7654722E1,3.1079638E1,3.6044965E0,6.824156E1],"tree_param":{"num_deleted":"0","num_feature":"136","num_nodes":"23","size_leaf_vector":"1"}},{"base_weights":[-9.259886E-2,-1E0,-3.186756E-2,-5.9300262E-2,-1.0303127E-1,7.56369E-1,-1.138638E-1,9.7840995E-1,-1.0303127E-1,-3.8606712E-1,2.191484E-1,3.075799E-4,1.0303127E-1,-2.1010982E-2,-1.0303127E-1,3.2578498E-2,-1.0303127E-1],"categories":[],"categories_nodes":[],"categories_segments":[],"categories_sizes":[],"default_left":[0,0,0,0,0,0,0,0,0,0,0,0,0,0,0,0,0],"id":53,"left_children":[1,3,5,-1,-1,7,9,11,-1,13,15,-1,-1,-1,-1,-1,-1],"loss_changes":[2.8666502E1,5.5054474E-1,2.7324163E1,0E0,0E0,2.0480051E1,3.4711517E1,3.507618E0,0E0,3.391284E1,2.3567486E1,0E0,0E0,0E0,0E0,0E0,0E0],"parents":[2147483647,0,0,1,1,2,2,5,5,6,6,7,7,9,9,10,10],"right_children":[2,4,6,-1,-1,8,10,12,-1,14,16,-1,-1,-1,-1,-1,-1],"split_conditions":[-4.8537105E-2,3.868633E-1,-3.650511E-2,-5.9300262E-2,-1.0303127E-1,8.095957E-1,4.1573E-1,-9.249239E-3,-1.0303127E-1,2.1572442E0,2.1182182E0,3.075799E-4,1.0303127E-1,-2.1010982E-2,-1.0303127E-1,3.2578498E-2,-1.0303127E-1],"split_indices":[106,116,105,0,0,90,76,40,0,91,116,0,0,0,0,0,0],"split_type":[0,0,0,0,0,0,0,0,0,0,0,0,0,0,0,0,0],"sum_hessian":[4.463118E2,2.3644545E1,4.2266724E2,3.118381E0,2.0526163E1,3.9812885E1,3.8285437E2,3.661004E1,3.2028463E0,2.1066768E2,1.7218668E2,3.5549963E0,3.3055042E1,1.7882161E2,3.1846075E1,1.613375E2,1.0849191E1],"tree_param":{"num_deleted":"0","num_feature":"136","num_nodes":"17","size_leaf_vector":"1"}},{"base_weights":[-7.884568E-2,-9.619853E-1,-2.4776159E-2,-1.0303127E-1,3.494044E-2,-1.0303127E-1,1.48720695E-2,5.747829E-2,-1E0,-1.0303127E-1,9.948531E-3,-1.0303127E-1,6.206345E-2],"categories":[],"categories_nodes":[],"categories_segments":[],"categories_sizes":[],"default_left":[0,0,0,0,0,0,0,0,0,0,0,0,0],"id":54,"left_children":[1,3,5,-1,-1,-1,7,9,11,-1,-1,-1,-1],"loss_changes":[2.1279396E1,9.437126E0,2.2008043E1,0E0,0E0,0E0,1.9395082E1,2.0454132E1,1.5440197E1,0E0,0E0,0E0,0E0],"parents":[2147483647,0,0,1,1,2,2,6,6,7,7,8,8],"right_children":[2,4,6,-1,-1,-1,8,10,12,-1,-1,-1,-1],"split_conditions":[9.761503E0,1.0727928E-1,-6.5787155E1,-1.0303127E-1,3.494044E-2,-1.0303127E-1,2.7220223E0,2.8556442E-1,9.680238E-1,-1.0303127E-1,9.948531E-3,-1.0303127E-1,6.206345E-2],"split_indices":[34,105,86,0,0,0,113,116,45,0,0,0,0],"split_type":[0,0,0,0,0,0,0,0,0,0,0,0,0],"sum_hessian":[4.4554785E2,2.5690994E1,4.1985687E2,2.0418789E1,5.2722044E0,1.0806727E1,4.0905014E2,3.9410345E2,1.4946693E1,1.0573228E1,3.835302E2,8.944466E0,6.0022273E0],"tree_param":{"num_deleted":"0","num_feature":"136","num_nodes":"13","size_leaf_vector":"1"}},{"base_weights":[-6.694716E-2,-1E0,-1.5706424E-2,-9.189456E-3,-1.0303127E-1,-6.428438E-1,6.0135897E-2,-1E0,3.6033013E-1,2.5327513E-1,-2.651811E-1,-1.0303127E-1,7.119893E-2,1.0236724E-1,-1.0303127E-1,-1.0303127E-1,3.425025E-2,-1.0303127E-1,-1.04012415E-2],"categories":[],"categories_nodes":[],"categories_segments":[],"categories_sizes":[],"default_left":[0,0,0,0,0,0,0,0,0,0,0,0,0,0,0,0,0,0,0],"id":55,"left_children":[1,3,5,-1,-1,7,9,11,13,15,17,-1,-1,-1,-1,-1,-1,-1,-1],"loss_changes":[2.4910097E1,3.0306072E0,2.0241304E1,0E0,0E0,2.0210436E1,2.3847775E1,1.0132736E1,1.262447E1,3.0204105E1,2.0144655E1,0E0,0E0,0E0,0E0,0E0,0E0,0E0,0E0],"parents":[2147483647,0,0,1,1,2,2,5,5,6,6,7,7,8,8,9,9,10,10],"right_children":[2,4,6,-1,-1,8,10,12,14,16,18,-1,-1,-1,-1,-1,-1,-1,-1],"split_conditions":[4.955032E-2,-1.2896973E0,1.4797593E-3,-9.189456E-3,-1.0303127E-1,5.7419662E0,1.8101376E-2,1.1416675E1,-1.0728245E-2,5.1665353E-3,8.564095E-2,-1.0303127E-1,7.119893E-2,1.0236724E-1,-1.0303127E-1,-1.0303127E-1,3.425025E-2,-1.0303127E-1,-1.04012415E-2],"split_indices":[125,79,57,0,0,14,57,3,96,98,81,0,0,0,0,0,0,0,0],"split_type":[0,0,0,0,0,0,0,0,0,0,0,0,0,0,0,0,0,0,0],"sum_hessian":[4.447347E2,1.9378883E1,4.2535583E2,3.665245E0,1.5713638E1,4.5889774E1,3.7946606E2,3.1816935E1,1.4072839E1,2.3811469E2,1.4135136E2,2.8284836E1,3.5320995E0,9.725164E0,4.3476744E0,1.043286E1,2.2768182E2,2.1991991E1,1.19359375E2],"tree_param":{"num_deleted":"0","num_feature":"136","num_nodes":"19","size_leaf_vector":"1"}},{"base_weights":[-4.359292E-2,-1E0,-2.767406E-4,-1.0303127E-1,-5.9746704E-3,-1E0,4.336668E-2,-2.426623E-2,-1E0,-1.0303127E-1,8.254484E-2,-8.9794084E-2,-1.0303127E-1,-1.0303127E-1,1.1916977E-2],"categories":[],"categories_nodes":[],"categories_segments":[],"categories_sizes":[],"default_left":[0,0,0,0,0,0,0,0,0,0,0,0,0,0,0],"id":56,"left_children":[1,3,5,-1,-1,7,9,-1,11,-1,13,-1,-1,-1,-1],"loss_changes":[2.1862661E1,2.7674465E0,2.0769505E1,0E0,0E0,2.6220722E0,1.9272572E1,0E0,4.333687E-2,0E0,1.9732605E1,0E0,0E0,0E0,0E0],"parents":[2147483647,0,0,1,1,2,2,5,5,6,6,8,8,10,10],"right_children":[2,4,6,-1,-1,8,10,-1,12,-1,14,-1,-1,-1,-1],"split_conditions":[-4.4770937E0,2.1363072E-1,2.9569982E-2,-1.0303127E-1,-5.9746704E-3,6.666667E-2,1.4540724E0,-2.426623E-2,2.3016173E-1,-1.0303127E-1,-9.286641E1,-8.9794084E-2,-1.0303127E-1,-1.0303127E-1,1.1916977E-2],"split_indices":[12,82,61,0,0,92,16,0,126,0,83,0,0,0,0],"split_type":[0,0,0,0,0,0,0,0,0,0,0,0,0,0,0],"sum_hessian":[4.40653E2,1.5474806E1,4.2517822E2,1.2345154E1,3.1296513E0,1.5757137E1,4.0942108E2,4.505074E0,1.1252064E1,1.2646123E1,3.9677496E2,3.2277188E0,8.024344E0,7.3475385E0,3.8942743E2],"tree_param":{"num_deleted":"0","num_feature":"136","num_nodes":"15","size_leaf_vector":"1"}},{"base_weights":[-6.2160302E-2,-8.794402E-1,-1.2526377E-4,1.0303127E-1,-1E0,1.6427408E-1,-3.3874652E-1,2.2575434E-2,-1.0303127E-1,6.2132406E-1,-2.0025484E-2,5.6634593E-1,-4.8777443E-1,-1.0303127E-1,7.9661086E-2,-1.0303127E-1,1.5020876E-2,1.0303127E-1,-5.9649527E-2,-7.0117965E-2,5.460471E-2],"categories":[],"categories_nodes":[],"categories_segments":[],"categories_sizes":[],"default_left":[0,0,0,0,0,0,0,0,0,0,0,0,0,0,0,0,0,0,0,0,0],"id":57,"left_children":[1,3,5,-1,7,9,11,-1,-1,13,15,17,19,-1,-1,-1,-1,-1,-1,-1,-1],"loss_changes":[2.1797865E1,1.7515316E1,2.2248928E1,0E0,7.446247E0,2.266365E1,1.762417E1,0E0,0E0,1.9661161E1,3.287329E1,9.214487E0,2.2012907E1,0E0,0E0,0E0,0E0,0E0,0E0,0E0,0E0],"parents":[2147483647,0,0,1,1,2,2,4,4,5,5,6,6,9,9,10,10,11,11,12,12],"right_children":[2,4,6,-1,8,10,12,-1,-1,14,16,18,20,-1,-1,-1,-1,-1,-1,-1,-1],"split_conditions":[5.1665353E-3,1.2555939E-1,1.8101376E-2,1.0303127E-1,9.565338E2,1.7956583E0,3.58708E-2,2.2575434E-2,-1.0303127E-1,3.5533197E-2,1.3825796E-2,-5.1432767E0,3.5324158E1,-1.0303127E-1,7.9661086E-2,-1.0303127E-1,1.5020876E-2,1.0303127E-1,-5.9649527E-2,-7.0117965E-2,5.460471E-2],"split_indices":[98,7,57,0,71,47,99,0,0,99,98,85,87,0,0,0,0,0,0,0,0],"split_type":[0,0,0,0,0,0,0,0,0,0,0,0,0,0,0,0,0,0,0,0,0],"sum_hessian":[4.298601E2,3.0312767E1,3.9954736E2,3.115596E0,2.719717E1,2.689594E2,1.3058794E2,4.9996037E0,2.2197567E1,7.728994E1,1.9166948E2,1.8454142E1,1.121338E2,6.4167957E0,7.0873146E1,2.643217E1,1.652373E2,1.3378242E1,5.0758996E0,9.428293E1,1.7850864E1],"tree_param":{"num_deleted":"0","num_feature":"136","num_nodes":"21","size_leaf_vector":"1"}},{"base_weights":[-5.8353934E-2,-2.0587921E-1,2.2284178E-1,-1E0,-1.1619881E-1,4.8629668E-1,-6.290008E-1,-8.141329E-2,-1.0303127E-1,-6.010608E-1,5.3042363E-2,-1E0,5.932856E-1,-1E0,2.2966656E-1,-8.340276E-2,6.7346625E-2,-1.0303127E-1,1.3513871E-2,-5.3632915E-2,-1.0303127E-1,-1.0303127E-1,6.8150036E-2,-1.0303127E-1,3.529585E-2,8.406813E-2,-1.0303127E-1],"categories":[],"categories_nodes":[],"categories_segments":[],"categories_sizes":[],"default_left":[0,0,0,0,0,0,0,0,0,0,0,0,0,0,0,0,0,0,0,0,0,0,0,0,0,0,0],"id":58,"left_children":[1,3,5,7,9,11,13,-1,-1,15,17,19,21,23,25,-1,-1,-1,-1,-1,-1,-1,-1,-1,-1,-1,-1],"loss_changes":[1.7470684E1,2.90974E1,3.2524963E1,1.4820099E-1,2.1362986E1,1.8768333E1,1.7206337E1,0E0,0E0,1.7624733E1,1.9245594E1,6.88262E-1,1.4003876E1,6.491308E0,1.5295136E1,0E0,0E0,0E0,0E0,0E0,0E0,0E0,0E0,0E0,0E0,0E0,0E0],"parents":[2147483647,0,0,1,1,2,2,3,3,4,4,5,5,6,6,9,9,10,10,11,11,12,12,13,13,14,14],"right_children":[2,4,6,8,10,12,14,-1,-1,16,18,